svm_type c_svc
kernel_type rbf
gamma 0.00138889
nr_class 4
total_sv 114
rho 0.0625 -0.243229 -0.361134 -0.282081 -0.394768 -0.148045
label 1 2 3 4
nr_sv 30 32 29 23
SV
1 0.755859375 0.6396479472408638 1:373.74134 2:507.79715 3:895.77354 4:235.48789 5:288.05005 6:283.70355 7:358.61047 8:367.96772 9:198.74236 10:650.63542 11:181.55325 12:431.72702 13:267.80313 14:133.3732 15:432.98351 16:203.23983 17:214.03159 18:111.23631 19:575.46856 20:343.35764 21:506.18799 22:203.84338 23:124.38593 24:343.2936 25:54.263845 26:142.37946 27:528.20245 28:450.68551 29:235.04887 30:463.97506 31:130.66378 32:525.25983 33:544.8968 34:208.75133 35:321.736 36:272.07894 37:409.83324 38:427.14419 39:586.53685 40:145.27648 41:84.128998 42:155.57507 43:147.48089 44:196.07017 45:471.45487 46:450.05295 47:422.25399 48:129.3492 49:303.38987 50:237.09 51:522.60211 52:305.90584 53:268.19444 54:374.31298 55:292.64122 56:199.60763 57:133.20479 58:534.57157 59:249.69611 60:164.9881 61:744.57763 62:564.53253 63:322.02216 64:328.76322 65:336.87551 66:33.079902 67:403.97548 68:250.80308 69:299.19966 70:281.7087 71:318.85795 72:263.11109 73:284.83968 74:260.25642 75:77.162315 76:204.82032 77:280.39258 78:179.42563 79:282.69813 80:273.05849 81:902.9427 82:188.708 83:576.273 84:370.99724 85:399.77151 86:379.69755 87:137.8425 88:277.14391 89:235.81987 90:293.46155 91:82.056735 92:298.12533 93:357.31013 94:301.29232 95:199.80463 96:342.87058 97:225.0089 98:200.46404 99:298.49084 100:148.96834 101:285.46047 102:515.11591 103:223.31513 104:373.0572 105:120.68746 106:309.00057 107:161.14631 108:536.02288 109:451.61778 110:719.37759 111:340.16334 112:245.80082 113:172.55677 114:50.012838 115:207.85679 116:614.1109 117:459.63518 118:337.61472 119:29.512695 120:102.40993 121:441.66477 122:411.62624 123:444.55627 124:441.48879 125:464.20486 126:138.09415 127:70.354453 128:485.11329 129:148.27297 130:250.98249 131:487.16517 132:258.77606 133:238.33546 134:373.23878 135:148.41316 136:188.3223 137:234.25403 138:263.28372 139:438.13178 140:431.85173 141:125.28021 142:254.22544 143:396.86956 144:288.71451 145:298.86362 146:231.16723 147:512.62749 148:537.95095 149:123.60464 150:516.91286 151:600.51289 152:397.10698 153:615.81658 154:238.11007 155:190.81469 156:122.79215 157:181.68336 158:148.52891 159:371.50692 160:435.31702 161:185.538 162:235.46149 163:340.53805 164:282.21141 165:664.8182 166:445.14349 167:167.19874 168:424.84379 169:355.51677 170:122.41702 171:441.02797 172:216.09406 173:394.7801 174:191.46578 175:590.61208 176:462.57421 177:436.61211 178:186.15252 179:132.38328 180:42.110208 181:173.3473 182:165.12547 183:240.81368 184:393.20095 185:106.60765 186:63.332866 187:763.403 188:792.50073 189:337.18741 190:267.52078 191:98.490001 192:204.45756 193:287.19661 194:544.30442 195:28.464444 196:190.77354 197:330.44292 198:297.82376 199:527.02037 200:293.36511 201:287.90354 202:330.60116 203:211.98723 204:76.280254 205:574.97365 206:113.18479 207:67.217789 208:311.74866 209:408.08098 210:236.25747 211:52.546472 212:619.86136 213:470.64202 214:63.768054 215:428.13503 216:244.84021 217:432.76662 218:135.89175 219:284.49641 220:33.936762 221:464.85959 222:215.76312 223:560.81854 224:275.10594 225:415.16188 226:525.48028 227:743.04036 228:216.05138 229:349.05658 230:97.572615 231:196.29934 232:307.17382 233:139.5445 234:476.83411 235:660.03726 236:277.33999 237:223.89697 238:429.24546 239:156.5246 240:389.50002 241:289.2712 242:756.21483 243:527.13496 244:47.485111 245:235.45187 246:596.00983 247:652.04271 248:244.92182 249:229.45876 250:188.71244 251:328.21346 252:548.65471 253:304.56037 254:395.33672 255:108.65476 256:360.07814 257:422.63951 258:303.76204 259:319.96929 260:347.89368 261:611.45972 262:277.34396 263:300.28814 264:357.11546 265:63.741265 266:224.44808 267:406.90192 268:482.40875 269:63.851851 270:37.434446 271:264.65766 272:195.9537 273:49.68754 274:227.76101 275:236.97769 276:500.56016 277:401.51749 278:229.63826 279:129.59613 280:337.73525 281:105.76955 282:613.84347 283:369.05523 284:154.16096 285:562.89539 286:397.02532 287:185.31903 288:65.632656 289:311.10569 290:118.86106 291:190.24634 292:429.87475 293:47.583521 294:202.31536 295:153.22886 296:293.98231 297:458.8926 298:208.84875 299:468.81223 300:164.91562 301:135.5484 302:341.87826 303:396.79662 304:269.10837 305:322.00357 306:284.61268 307:149.48987 308:405.0357 309:110.9415 310:229.29136 311:108.60211 312:42.823141 313:589.02687 314:384.72149 315:416.97193 316:179.81967 317:289.33304 318:247.61396 319:99.517109 320:248.31068 321:242.06709 322:242.96413 323:472.02755 324:149.24529 325:464.09309 326:693.7391 327:133.79554 328:642.26337 329:170.23559 330:575.5517 331:430.13401 332:436.00044 333:136.98238 334:159.983 335:509.41713 336:131.48507 337:540.91373 338:199.27483 339:123.34854 340:299.65557 341:162.28609 342:128.04745 343:244.33582 344:220.77916 345:99.00398 346:67.256532 347:410.32927 348:342.38395 349:303.53985 350:791.52141 351:305.02903 352:260.05078 353:186.83659 354:352.63375 355:246.83959 356:339.47809 357:445.7481 358:144.25406 359:351.29553 360:376.26105 361:485.61288 362:363.24491 363:200.65973 364:685.33014 365:96.392676 366:281.47174 367:310.4885 368:309.83987 369:333.31778 370:237.22302 371:105.91575 372:165.13588 373:541.44861 374:198.32475 375:370.16648 376:336.95279 377:500.21467 378:526.40976 379:189.42287 380:205.48411 381:157.8399 382:207.6252 383:53.642264 384:177.70945 385:276.0048 386:345.76569 387:79.656257 388:221.2661 389:93.66217 390:302.86843 391:310.3852 392:313.74002 393:584.40951 394:376.32438 395:258.05335 396:49.055484 397:81.071793 398:132.42766 399:120.80186 400:239.50893 401:311.52422 402:253.64607 403:51.83469 404:531.18257 405:88.042815 406:262.88747 407:478.58695 408:149.35766 409:262.9316 410:98.506842 411:214.42912 412:315.22775 413:260.46182 414:289.14596 415:648.98206 416:366.74127 417:269.5901 418:561.31318 419:351.71264 420:337.85192 421:203.12738 422:203.97659 423:556.7454 424:608.26022 425:301.94795 426:327.85144 427:239.37015 428:167.076 429:48.205407 430:188.62243 431:341.7359 432:230.66082 433:193.58101 434:166.40417 435:175.26667 436:285.83268 437:373.08738 438:529.11281 439:414.57809 440:524.38088 441:165.40188 442:563.11612 443:582.5621 444:486.7853 445:548.27595 446:143.66726 447:288.91352 448:118.25771 449:286.71892 450:180.44288 451:267.09888 452:89.611401 453:182.20262 454:81.546516 455:503.73993 456:192.46579 457:281.84343 458:218.51136 459:125.01455 460:192.31774 461:243.73749 462:160.65276 463:315.64874 464:445.09377 465:279.6044 466:412.08508 467:397.48619 468:475.80349 469:219.38179 470:425.2057 471:144.49248 472:276.59696 473:183.3673 474:151.45634 475:509.26272 476:401.97175 477:595.43075 478:127.73125 479:173.57412 480:258.88131 481:183.56782 482:178.91596 483:432.50252 484:685.95727 485:273.65833 486:593.47749 487:259.67761 488:73.568867 489:462.56817 490:459.53375 491:512.98291 492:56.48852 493:419.84662 494:320.94858 495:110.7396 496:313.78839 497:257.54551 498:204.17055 499:388.43199 500:292.12356 501:144.17619 502:452.48437 503:239.62917 504:427.34195 505:99.349199 506:717.17257 507:812.43883 508:50.199579 509:132.74595 510:162.02742 511:277.09105 512:156.32646 513:387.89917 514:596.91027 515:315.35379 516:416.29344 517:335.55882 518:121.15686 519:119.16209 520:202.72874 521:476.74002 522:503.44212 523:291.73245 524:340.17341 525:366.73725 526:335.48615 527:197.25923 528:334.11686 529:173.35126 530:268.88736 531:261.46671 532:340.47498 533:384.93039 534:352.68311 535:340.46513 536:353.43376 537:290.09914 538:308.88489 539:242.23437 540:42.123119 541:438.1091 542:103.44033 543:140.47897 544:250.89837 545:106.19301 546:63.187214 547:210.14622 548:343.87525 549:421.13942 550:296.35562 551:333.50736 552:360.87245 553:318.50834 554:234.92316 555:380.9263 556:392.71279 557:362.15633 558:211.91555 559:409.24658 560:80.018095 561:233.73033 562:127.26417 563:152.25166 564:220.63321 565:426.19521 566:406.19835 567:222.73775 568:443.17707 569:402.45792 570:87.868247 571:354.69188 572:512.48948 573:122.92811 574:125.28598 575:153.4588 576:211.2695 577:200.90367 578:96.805709 579:251.69042 580:257.79671 581:101.90864 582:465.92555 583:366.76037 584:550.38294 585:143.62016 586:154.53766 587:282.98397 588:254.42339 589:321.94812 590:151.4381 591:333.06803 592:283.89896 593:82.093658 594:266.72256 595:144.56693 596:459.00636 597:207.72262 598:253.08433 599:279.07494 600:244.92966 601:303.51052 602:4.2829887 603:163.20256 604:170.6921 605:153.51985 606:378.78333 607:449.74283 608:271.08914 609:256.15718 610:396.99553 611:145.83731 612:251.28639 613:323.06255 614:114.59271 615:328.30304 616:238.50121 617:154.05899 618:400.93153 619:140.54852 620:234.12444 621:277.7107 622:129.59788 623:212.61289 624:169.99735 625:253.78335 626:334.70332 627:288.09226 628:730.42063 629:228.02887 630:319.23221 631:320.00519 632:248.87062 633:459.17206 634:418.08879 635:406.40064 636:426.56446 637:528.62442 638:280.9203 639:702.94486 640:318.59745 641:403.30027 642:438.8648 643:282.53228 644:284.00755 645:536.69865 646:402.95455 647:328.66114 648:222.13641 649:213.46401 650:235.7085 651:129.98037 652:253.81287 653:204.14725 654:220.61869 655:516.00533 656:510.51847 657:364.3965 658:201.18681 659:132.68032 660:546.29659 661:450.27862 662:446.30066 663:244.87711 664:44.861291 665:533.1257 666:335.50102 667:921.27579 668:546.80788 669:258.37347 670:401.64913 671:577.97233 672:318.68704 673:195.20538 674:123.87729 675:131.42603 676:409.94125 677:633.02443 678:536.02178 679:438.80134 680:650.60627 681:158.93526 682:256.19091 683:318.49558 684:121.59105 685:681.19848 686:457.57806 687:83.183945 688:227.3006 689:458.47086 690:279.64466 691:491.6036 692:245.84609 693:297.17378 694:237.63838 695:617.659 696:334.35247 697:389.73543 698:169.16201 699:291.53814 700:101.39446 701:76.916753 702:394.80814 703:339.66962 704:136.16964 705:30.386278 706:160.01694 707:548.58701 708:119.88816 709:298.42462 710:337.64311 711:130.09039 712:77.782547 713:282.99713 714:140.88093 715:325.09664 716:682.06745 717:397.60619 718:510.91746 719:387.75054 720:75.000129 
1 0.755859375 0.6396479472408638 1:488.20166 2:434.76047 3:419.24809 4:253.65371 5:407.46369 6:229.5948 7:193.25506 8:26.419438 9:264.43289 10:158.11095 11:373.04543 12:310.41761 13:478.83108 14:305.82038 15:557.72807 16:205.40287 17:337.44512 18:226.58695 19:230.40722 20:190.36121 21:546.90218 22:698.73479 23:77.151731 24:84.85367 25:380.48941 26:412.13223 27:390.00148 28:179.51184 29:339.10123 30:402.93613 31:227.46499 32:40.775641 33:164.02109 34:289.80159 35:405.74219 36:186.79275 37:494.73679 38:381.40639 39:419.9775 40:268.55965 41:203.43293 42:359.58052 43:155.91545 44:402.08387 45:249.64872 46:398.81575 47:154.30804 48:148.18351 49:417.36363 50:136.50021 51:171.25791 52:263.9998 53:260.73428 54:523.49716 55:589.40554 56:220.66037 57:372.48023 58:163.46269 59:452.135 60:252.77403 61:447.69838 62:347.31241 63:327.71077 64:165.32815 65:481.70028 66:264.55635 67:440.90443 68:178.55482 69:200.31862 70:263.44902 71:282.12626 72:306.47987 73:342.82056 74:275.80241 75:258.93366 76:69.213442 77:123.4409 78:135.25756 79:223.36456 80:254.05824 81:208.68139 82:346.35996 83:415.77359 84:308.13129 85:950.15278 86:404.63712 87:361.06079 88:331.04173 89:367.30429 90:189.17614 91:556.05667 92:362.12883 93:378.8015 94:392.28767 95:694.48005 96:369.49417 97:375.96695 98:352.7431 99:142.27343 100:182.23975 101:86.049248 102:142.16112 103:304.17695 104:297.41848 105:119.60422 106:100.18304 107:151.80077 108:161.96176 109:512.678 110:149.23937 111:304.15962 112:537.20202 113:187.25359 114:71.505911 115:648.26755 116:196.6511 117:236.69867 118:172.60293 119:300.20283 120:71.469723 121:145.19991 122:549.74109 123:146.63379 124:81.476373 125:217.69857 126:135.20259 127:558.61803 128:555.65627 129:27.101541 130:341.8654 131:400.42699 132:288.83972 133:27.997327 134:168.79604 135:498.96894 136:408.38157 137:160.13846 138:267.64875 139:137.80668 140:188.00067 141:132.19049 142:364.88948 143:322.02088 144:156.89886 145:302.12331 146:405.1854 147:110.36116 148:129.09856 149:528.30038 150:255.02081 151:639.06787 152:280.63249 153:386.77373 154:360.45718 155:171.84996 156:195.36856 157:217.46516 158:288.37552 159:260.92749 160:55.643131 161:103.24932 162:215.86456 163:329.63156 164:230.57324 165:520.97917 166:149.61707 167:46.244403 168:109.42599 169:132.61625 170:474.32802 171:328.50618 172:293.02471 173:561.23975 174:359.61811 175:461.15414 176:429.06785 177:470.00483 178:481.09793 179:116.22155 180:180.64408 181:822.72332 182:37.309956 183:332.73257 184:216.07815 185:323.5501 186:444.21389 187:482.15417 188:151.39147 189:126.86102 190:355.04772 191:368.92419 192:334.07738 193:230.14559 194:671.1879 195:674.05374 196:480.45312 197:173.59972 198:130.92442 199:220.95661 200:351.07183 201:152.51138 202:386.89052 203:548.44972 204:241.65477 205:381.84721 206:346.24396 207:470.30334 208:441.12575 209:590.41526 210:205.34551 211:182.93667 212:218.10541 213:320.57672 214:259.05014 215:424.41487 216:491.32701 217:222.1107 218:381.51486 219:542.60162 220:179.96322 221:467.27143 222:504.09057 223:128.54384 224:423.23407 225:493.35263 226:305.86808 227:279.44833 228:284.96215 229:206.72534 230:15.407508 231:339.47137 232:224.92568 233:108.14088 234:189.65989 235:285.545 236:145.43248 237:156.05717 238:374.32967 239:129.11844 240:260.40633 241:106.58839 242:459.91294 243:50.946889 244:181.2945 245:381.02004 246:79.382807 247:276.50752 248:248.61081 249:677.05301 250:333.5423 251:232.27608 252:265.55289 253:509.21741 254:671.011 255:281.80045 256:568.01017 257:342.21633 258:451.63022 259:325.38064 260:402.88326 261:389.99983 262:599.15448 263:577.95067 264:355.1577 265:314.15998 266:544.17431 267:165.33804 268:427.82859 269:288.07405 270:326.77396 271:658.98384 272:522.62478 273:165.54928 274:207.9269 275:115.84524 276:376.77982 277:720.36193 278:424.46803 279:318.07865 280:573.36302 281:78.406014 282:372.5462 283:332.93999 284:569.70206 285:263.66389 286:414.41909 287:436.15842 288:131.19794 289:229.12323 290:367.74805 291:141.31497 292:106.44885 293:263.13977 294:76.037967 295:122.91995 296:380.02261 297:289.44183 298:266.3731 299:93.328209 300:145.37463 301:394.38794 302:241.6899 303:337.55361 304:337.01914 305:318.14696 306:465.35753 307:351.43719 308:536.3802 309:197.81271 310:383.56914 311:76.135018 312:211.72863 313:653.1644 314:466.03154 315:397.2477 316:431.73411 317:96.986817 318:361.56907 319:745.29714 320:425.11804 321:58.472879 322:64.821079 323:540.05236 324:339.86369 325:179.9218 326:182.56314 327:590.81849 328:308.11237 329:509.15681 330:214.16636 331:393.25134 332:178.05032 333:285.20554 334:251.94058 335:329.82263 336:360.83909 337:90.240305 338:294.3208 339:298.80709 340:539.90997 341:555.93463 342:95.181457 343:784.97795 344:75.289472 345:206.01826 346:412.39541 347:386.2473 348:422.01191 349:319.23522 350:496.15486 351:240.25369 352:146.52788 353:153.37031 354:525.48926 355:353.85412 356:371.16254 357:369.19389 358:265.35588 359:339.78893 360:205.03001 361:148.29146 362:300.14337 363:263.17564 364:231.16681 365:496.27993 366:431.60802 367:453.89719 368:483.68686 369:321.20157 370:526.46797 371:267.74993 372:84.752058 373:886.08543 374:415.49968 375:632.27946 376:406.41924 377:261.18079 378:257.71853 379:231.75491 380:529.48889 381:651.01635 382:358.15927 383:388.37923 384:163.15358 385:485.24464 386:79.049435 387:271.7747 388:166.67941 389:88.540021 390:324.45408 391:146.21789 392:166.27385 393:294.48322 394:305.68119 395:553.41746 396:346.98622 397:235.60396 398:91.298108 399:592.04749 400:182.86362 401:265.51971 402:303.89728 403:149.17452 404:292.83736 405:495.51977 406:112.88346 407:333.51628 408:255.03701 409:146.61177 410:489.71364 411:785.22646 412:128.53011 413:134.88615 414:414.88192 415:194.88622 416:269.09279 417:95.081879 418:370.65252 419:368.14878 420:105.51917 421:435.42908 422:327.2871 423:571.26749 424:373.17334 425:584.28619 426:339.24467 427:600.09703 428:398.46638 429:202.37083 430:333.31507 431:402.114 432:154.10287 433:238.05427 434:506.71704 435:438.10863 436:661.27881 437:350.65596 438:250.88007 439:367.22037 440:674.80549 441:493.57312 442:357.94299 443:22.184823 444:344.80726 445:372.90898 446:117.67481 447:516.28009 448:449.70038 449:348.72612 450:255.67887 451:510.1304 452:469.06783 453:414.24384 454:282.6545 455:238.09711 456:66.559877 457:165.99381 458:223.56015 459:516.02686 460:131.2708 461:270.13452 462:204.55426 463:486.06185 464:166.59268 465:254.35547 466:426.83059 467:306.42988 468:401.11184 469:729.50158 470:420.31125 471:415.08339 472:191.6583 473:278.83788 474:259.42164 475:260.31205 476:189.33209 477:263.04388 478:196.15599 479:76.215783 480:59.725784 481:525.19062 482:233.46249 483:483.23919 484:435.53935 485:70.342999 486:471.87162 487:454.32423 488:433.80748 489:321.28145 490:166.42095 491:591.85551 492:215.31372 493:166.86658 494:248.10468 495:308.89553 496:303.23692 497:229.5536 498:372.00337 499:305.62882 500:659.16786 501:318.67839 502:242.47341 503:137.60003 504:474.33103 505:398.02407 506:437.47382 507:75.91696 508:148.34336 509:114.91422 510:90.606574 511:214.90177 512:581.25973 513:244.13094 514:211.27526 515:386.27886 516:30.687063 517:431.70571 518:221.54921 519:55.558303 520:380.01946 521:355.45029 522:169.43523 523:365.61104 524:183.08099 525:487.09931 526:548.85757 527:142.85423 528:285.77136 529:348.0462 530:533.59844 531:543.69604 532:499.3936 533:231.11904 534:118.91718 535:503.48982 536:534.94495 537:188.14209 538:396.75174 539:309.98465 540:229.21693 541:141.73447 542:346.02308 543:346.84562 544:294.90675 545:217.53707 546:37.31955 547:144.63135 548:258.69375 549:293.25172 550:444.50694 551:261.06484 552:192.7958 553:95.421872 554:441.1968 555:260.87805 556:268.96633 557:174.32969 558:237.00192 559:255.42334 560:370.70728 561:148.85129 562:304.32019 563:290.92122 564:561.37391 565:112.77135 566:486.11323 567:201.30356 568:378.50899 569:99.100452 570:177.34301 571:283.27352 572:386.44729 573:109.61497 574:459.06036 575:270.1387 576:162.161 577:144.4386 578:276.61026 579:515.91425 580:337.22895 581:418.37499 582:285.49263 583:352.37901 584:233.25608 585:74.85125 586:300.47866 587:652.29148 588:119.00379 589:36.550548 590:127.19526 591:82.718538 592:156.6101 593:155.03812 594:175.96286 595:161.795 596:149.90981 597:194.81763 598:72.911483 599:343.37589 600:77.394574 601:376.2013 602:135.57191 603:191.38305 604:211.43716 605:207.80212 606:286.0274 607:395.72168 608:504.27435 609:146.48536 610:192.13756 611:166.47834 612:160.26848 613:635.89306 614:172.06032 615:263.31075 616:267.6741 617:91.647466 618:292.12345 619:169.09623 620:331.02 621:371.93142 622:46.855953 623:171.37705 624:303.67449 625:200.83506 626:228.16232 627:392.18776 628:229.0388 629:83.688772 630:63.252518 631:462.58748 632:327.49674 633:203.59967 634:115.13291 635:138.98775 636:795.52498 637:71.306648 638:246.41758 639:266.01876 640:248.95327 641:301.04929 642:174.51008 643:398.92812 644:136.24902 645:512.3063 646:253.56378 647:516.92873 648:128.49373 649:276.19298 650:433.28191 651:241.30182 652:354.02362 653:214.49567 654:268.08154 655:142.83437 656:263.53075 657:225.77181 658:353.45726 659:230.68329 660:382.93669 661:229.28707 662:123.82305 663:228.65424 664:591.23595 665:392.74378 666:233.23916 667:335.26227 668:258.60026 669:212.04709 670:259.36248 671:216.37621 672:237.87131 673:343.853 674:591.71632 675:134.18592 676:484.63459 677:458.02307 678:422.52402 679:235.70931 680:60.395771 681:470.49199 682:583.40792 683:207.41885 684:204.26241 685:556.97159 686:109.9819 687:340.63939 688:346.26132 689:253.59655 690:116.42302 691:316.68847 692:266.6391 693:157.06213 694:456.85348 695:179.41311 696:205.46525 697:380.48805 698:448.4395 699:356.66355 700:361.32815 701:249.26772 702:295.99045 703:427.25342 704:245.34042 705:297.11944 706:192.58759 707:157.96199 708:407.53396 709:344.43751 710:58.887461 711:108.91159 712:61.765839 713:309.20862 714:446.12938 715:129.66262 716:267.11718 717:147.78047 718:427.14478 719:369.80698 720:102.15066 
1 0.755859375 0.6396428001773602 1:416.51046 2:407.74498 3:401.59601 4:271.36594 5:200.69694 6:521.96185 7:423.09657 8:376.98017 9:444.70427 10:170.13838 11:290.12142 12:340.39805 13:258.96168 14:229.85552 15:350.67959 16:153.13647 17:335.70736 18:355.53718 19:317.82154 20:467.12709 21:27.881463 22:383.14743 23:312.19146 24:252.14082 25:317.23927 26:177.88363 27:255.27474 28:168.02618 29:95.84597 30:224.29797 31:356.53713 32:612.7693 33:178.67247 34:326.8061 35:105.82768 36:218.04809 37:437.08776 38:262.6749 39:221.57724 40:169.97731 41:535.02467 42:495.52395 43:348.90973 44:255.97593 45:211.0491 46:440.29962 47:203.16055 48:373.06525 49:343.55189 50:262.59894 51:317.23029 52:218.4941 53:260.61612 54:181.40619 55:370.57502 56:13.228694 57:259.12987 58:346.79962 59:291.23029 60:51.204974 61:773.93941 62:112.92176 63:214.97276 64:370.22162 65:308.68551 66:140.65924 67:223.41981 68:185.70969 69:400.70544 70:367.05967 71:175.84734 72:423.0896 73:729.07978 74:291.67956 75:416.07723 76:175.2931 77:394.20415 78:346.62952 79:405.87513 80:449.41052 81:486.87455 82:494.24748 83:72.719926 84:337.02668 85:428.07318 86:196.60277 87:254.83082 88:411.50385 89:209.9681 90:57.179509 91:762.42499 92:225.17026 93:274.78164 94:387.60746 95:100.18061 96:491.32991 97:471.57067 98:232.8152 99:250.97409 100:221.6793 101:176.79186 102:208.86244 103:273.80564 104:118.89818 105:319.40347 106:20.46039 107:289.79095 108:193.00283 109:401.8319 110:99.369931 111:185.86803 112:151.33936 113:268.40458 114:92.011685 115:250.58014 116:551.97211 117:629.3289 118:268.77602 119:460.34738 120:467.04536 121:456.30824 122:519.88646 123:62.733449 124:433.58035 125:139.00596 126:307.36752 127:369.60011 128:178.01386 129:168.48687 130:346.5775 131:188.56435 132:110.70075 133:217.78475 134:317.2513 135:251.03974 136:360.1638 137:493.72752 138:451.29112 139:326.82304 140:164.12983 141:169.12323 142:294.23431 143:267.29703 144:304.88447 145:200.74209 146:193.66476 147:469.22023 148:292.74358 149:312.47536 150:148.72357 151:27.345419 152:451.4753 153:291.97062 154:435.09239 155:498.06858 156:69.350762 157:419.46996 158:95.07139 159:102.49685 160:103.22616 161:128.70471 162:114.67636 163:599.90454 164:398.23234 165:358.863 166:123.46957 167:125.79985 168:153.27476 169:527.09424 170:439.21316 171:439.7019 172:389.35096 173:79.64692 174:15.553362 175:293.02673 176:336.07281 177:180.88819 178:130.51561 179:210.05101 180:297.54262 181:79.517963 182:308.30563 183:590.54851 184:515.48778 185:433.9617 186:541.52775 187:670.66852 188:574.19504 189:447.76202 190:412.02066 191:368.67605 192:321.43077 193:316.12894 194:471.42067 195:330.53814 196:489.36853 197:263.43159 198:357.94831 199:163.13964 200:463.30152 201:201.51632 202:341.0811 203:289.56704 204:487.25998 205:135.84357 206:207.2481 207:360.05068 208:268.81259 209:125.00747 210:57.79375 211:225.92971 212:338.8864 213:326.36973 214:24.235527 215:209.01521 216:400.83259 217:224.42061 218:113.85846 219:415.46697 220:530.0171 221:639.66887 222:520.76321 223:194.72601 224:127.3859 225:368.73512 226:535.4024 227:706.70116 228:290.80358 229:345.26535 230:161.94368 231:608.60133 232:300.14092 233:292.50407 234:396.47853 235:284.67396 236:503.99778 237:208.66108 238:105.42227 239:310.96482 240:133.69474 241:779.59697 242:197.90457 243:322.44277 244:193.43755 245:612.56889 246:167.90748 247:408.27994 248:705.0786 249:987.42414 250:566.69035 251:147.89103 252:87.6688 253:162.24488 254:226.91342 255:450.46609 256:403.27769 257:309.42408 258:148.27368 259:362.57953 260:417.17776 261:406.80829 262:619.42654 263:136.12981 264:170.67715 265:926.78503 266:54.741514 267:350.30281 268:345.45774 269:177.44549 270:281.73829 271:330.233 272:270.77001 273:165.53418 274:282.17195 275:550.86479 276:248.4295 277:98.852183 278:388.0952 279:59.14408 280:46.561133 281:336.08758 282:136.74006 283:321.04198 284:365.97054 285:139.43064 286:46.341555 287:298.56446 288:94.064218 289:397.98683 290:176.20313 291:217.50363 292:38.578258 293:129.81377 294:202.59662 295:231.32549 296:196.40091 297:119.2541 298:233.8772 299:257.09865 300:316.53775 301:209.6812 302:752.31034 303:325.80351 304:253.59767 305:448.13794 306:343.97741 307:91.027408 308:414.02963 309:155.3341 310:251.94243 311:401.7836 312:468.82725 313:671.94837 314:336.40742 315:408.1884 316:241.41777 317:84.252887 318:41.940639 319:634.06119 320:252.87764 321:188.04129 322:251.49313 323:666.55916 324:557.9897 325:217.29878 326:421.9211 327:684.74823 328:351.87551 329:425.53363 330:148.40272 331:173.90623 332:87.507168 333:380.43044 334:212.83805 335:573.09399 336:354.53867 337:495.04054 338:367.78106 339:180.14791 340:215.76494 341:417.53124 342:63.905654 343:501.32647 344:718.80561 345:151.30292 346:165.26901 347:296.77591 348:645.81003 349:615.1346 350:319.55816 351:330.93883 352:10.05268 353:223.45057 354:227.37602 355:64.921913 356:361.14384 357:27.134764 358:153.73916 359:94.345926 360:69.412911 361:262.36078 362:678.38588 363:103.16946 364:314.18607 365:170.78554 366:41.608884 367:314.24169 368:651.06166 369:357.83126 370:510.46013 371:329.6011 372:458.96129 373:501.69214 374:528.2195 375:278.7736 376:107.22542 377:173.53167 378:458.99575 379:814.87889 380:576.77432 381:549.86579 382:267.7702 383:209.36733 384:41.062422 385:340.85471 386:206.34556 387:178.76861 388:128.77984 389:270.92969 390:158.17104 391:420.43496 392:236.64142 393:267.39477 394:501.26913 395:295.27733 396:136.15975 397:230.37377 398:319.53213 399:93.399035 400:690.22936 401:128.55059 402:250.0165 403:200.8049 404:255.08897 405:772.84052 406:364.64144 407:405.71809 408:467.00625 409:521.56154 410:448.20028 411:507.42982 412:532.58599 413:129.9005 414:64.4825 415:184.89135 416:289.42443 417:172.75866 418:404.77421 419:364.80315 420:94.041266 421:401.81844 422:548.25603 423:2.9287461 424:78.443108 425:185.91856 426:262.23884 427:385.36104 428:340.20223 429:252.98154 430:216.69958 431:288.90192 432:420.10341 433:427.38906 434:449.31234 435:338.74043 436:323.77042 437:255.90506 438:394.26763 439:154.48332 440:624.74682 441:275.57562 442:141.61349 443:302.11368 444:94.699837 445:193.70156 446:430.94235 447:163.1362 448:464.20639 449:352.45491 450:566.00218 451:299.22862 452:321.22745 453:328.34964 454:113.80762 455:430.38168 456:324.47224 457:198.44347 458:445.92787 459:164.25097 460:97.931361 461:513.02194 462:315.53032 463:119.78762 464:241.86004 465:273.34866 466:178.81987 467:354.8614 468:118.88737 469:616.97358 470:124.43618 471:782.71293 472:139.93609 473:691.29431 474:606.89432 475:783.13295 476:293.31521 477:216.96343 478:90.932253 479:346.80929 480:208.17838 481:269.59338 482:178.15662 483:368.45585 484:246.01352 485:204.2063 486:135.43135 487:152.272 488:559.0359 489:117.99213 490:216.31186 491:359.69632 492:86.672549 493:283.43885 494:394.11625 495:264.20232 496:203.51109 497:335.72683 498:254.17064 499:258.94619 500:119.37484 501:212.35886 502:188.55612 503:305.10517 504:126.3512 505:624.07397 506:101.85711 507:298.83772 508:336.29537 509:536.46711 510:353.69593 511:427.29233 512:245.57616 513:552.05768 514:400.04355 515:192.02207 516:327.07141 517:112.21225 518:191.17743 519:229.26833 520:526.0346 521:299.60556 522:420.5617 523:449.00188 524:640.69308 525:272.86993 526:257.31337 527:286.02682 528:209.5563 529:23.739803 530:546.95343 531:425.05677 532:360.57364 533:250.89149 534:501.17072 535:322.99406 536:638.16391 537:186.62244 538:133.78603 539:222.66975 540:270.72169 541:520.54375 542:621.60877 543:157.86387 544:335.08684 545:627.36445 546:356.29481 547:95.891397 548:144.14037 549:154.87522 550:344.69857 551:526.09199 552:506.05937 553:143.35181 554:143.88071 555:560.87665 556:130.85319 557:468.99766 558:227.58855 559:319.4311 560:224.01321 561:265.89155 562:322.80895 563:192.85961 564:132.48749 565:106.40111 566:466.93107 567:545.53976 568:214.60438 569:602.29408 570:113.10365 571:186.26442 572:469.33444 573:316.41981 574:199.87108 575:360.38799 576:235.95738 577:414.41116 578:125.81372 579:368.85525 580:264.32923 581:148.10246 582:161.18876 583:287.70383 584:466.14813 585:263.32261 586:218.39608 587:174.85094 588:176.34419 589:525.06424 590:335.15533 591:423.94351 592:515.71837 593:153.70916 594:249.59419 595:422.71908 596:404.88648 597:381.15598 598:290.48978 599:85.916332 600:129.94063 601:550.91372 602:549.85811 603:252.76386 604:277.31778 605:418.94421 606:297.10813 607:151.97652 608:368.9336 609:76.093597 610:227.09295 611:250.13895 612:487.0163 613:432.68995 614:313.80504 615:453.46155 616:575.25028 617:105.43682 618:267.97362 619:282.49854 620:202.28098 621:187.2555 622:111.62437 623:204.87688 624:414.76421 625:420.93917 626:464.71426 627:303.02813 628:311.01473 629:180.59627 630:720.4038 631:231.86789 632:162.06825 633:278.24991 634:278.31311 635:321.26401 636:297.68854 637:542.85417 638:135.82242 639:326.55455 640:345.18841 641:136.04189 642:97.611033 643:214.81363 644:205.01115 645:554.90374 646:369.57244 647:191.28689 648:238.14752 649:186.79375 650:497.37845 651:155.10807 652:156.8216 653:472.17733 654:359.00961 655:214.30605 656:344.2692 657:499.40729 658:289.78648 659:151.32214 660:469.38729 661:373.45887 662:47.089726 663:170.00558 664:233.18254 665:324.19833 666:418.52355 667:460.16835 668:100.34511 669:362.79965 670:227.4092 671:335.96702 672:503.01522 673:433.4872 674:343.53019 675:413.57571 676:154.82877 677:634.16018 678:212.78726 679:591.55027 680:322.73147 681:303.94047 682:507.95543 683:290.27937 684:276.60961 685:403.34229 686:391.15656 687:211.14097 688:367.40107 689:341.27782 690:214.79705 691:384.63462 692:319.16182 693:253.21243 694:145.6136 695:318.49676 696:198.55396 697:168.76005 698:346.12043 699:368.1123 700:175.70628 701:195.11857 702:405.06798 703:695.27552 704:32.097992 705:140.58542 706:789.7757 707:850.90398 708:186.32304 709:97.922334 710:148.45587 711:189.57258 712:192.07543 713:222.28114 714:232.23986 715:268.60397 716:338.08884 717:382.40024 718:221.84119 719:61.214813 720:501.90261 
1 0.7568359375 0.6396428001773602 1:321.54505 2:214.23219 3:191.88178 4:363.08288 5:79.424547 6:131.64485 7:150.5337 8:406.15623 9:62.207895 10:76.76137 11:71.528329 12:76.16712 13:239.09181 14:226.31195 15:352.44909 16:358.26828 17:217.7491 18:193.4635 19:459.10417 20:201.16017 21:315.31624 22:94.665557 23:601.14347 24:135.72577 25:277.47736 26:357.27215 27:108.13433 28:179.70714 29:227.85072 30:313.87707 31:82.042619 32:439.06201 33:260.52076 34:318.91161 35:82.954374 36:400.5746 37:193.89483 38:235.01011 39:317.31483 40:286.01908 41:83.251608 42:278.46091 43:472.52473 44:284.66333 45:196.82838 46:279.75117 47:375.55948 48:137.94311 49:137.25486 50:469.37271 51:363.16173 52:204.7272 53:261.00384 54:318.33234 55:204.38221 56:102.598 57:301.01531 58:26.297144 59:132.73294 60:357.67141 61:529.44091 62:365.53804 63:264.78074 64:328.26362 65:140.77691 66:397.73376 67:344.01027 68:132.92556 69:362.51769 70:365.23005 71:147.43047 72:436.06912 73:92.157889 74:85.038588 75:108.72966 76:106.48149 77:76.040624 78:256.34976 79:496.26203 80:420.04657 81:231.76602 82:58.214313 83:197.22329 84:214.26797 85:362.64435 86:469.77698 87:517.92597 88:275.87908 89:97.340981 90:185.29877 91:343.18144 92:329.66305 93:375.07293 94:400.87661 95:229.30461 96:408.38795 97:113.553 98:123.52944 99:199.76397 100:187.74493 101:76.657114 102:179.72519 103:467.51762 104:374.40197 105:350.34757 106:295.2515 107:309.6819 108:153.60633 109:291.91699 110:363.5721 111:369.58563 112:180.02185 113:114.65027 114:161.0705 115:286.51087 116:124.38789 117:225.34041 118:107.95946 119:137.21742 120:28.212907 121:225.94687 122:128.78419 123:135.11751 124:35.59905 125:183.71811 126:66.090388 127:360.91294 128:194.65712 129:338.85184 130:168.77622 131:305.71072 132:252.40295 133:406.9282 134:269.42003 135:222.25847 136:95.272549 137:184.40876 138:83.394466 139:134.83014 140:218.45011 141:16.544728 142:125.59415 143:505.45668 144:80.252157 145:324.30302 146:216.78418 147:109.227 148:370.40596 149:183.10692 150:271.74729 151:33.448191 152:81.45596 153:206.37921 154:269.37951 155:112.89685 156:239.35937 157:107.66349 158:157.78046 159:66.054897 160:215.2421 161:84.326512 162:112.68526 163:44.533496 164:23.990522 165:179.23079 166:211.27586 167:52.868507 168:42.528925 169:132.80412 170:49.573872 171:37.998296 172:117.72274 173:118.63973 174:64.965718 175:246.75234 176:302.79431 177:266.63371 178:93.124043 179:53.508338 180:251.9526 181:90.044185 182:60.570757 183:108.45549 184:196.41155 185:12.93535 186:74.232165 187:328.76278 188:184.43135 189:324.48366 190:333.66493 191:126.34994 192:133.2377 193:388.40169 194:489.42824 195:239.70525 196:477.52563 197:279.99134 198:77.144542 199:194.5722 200:296.09935 201:169.78647 202:253.6072 203:157.26441 204:142.71257 205:139.78897 206:274.62413 207:169.11862 208:170.22717 209:156.17742 210:104.50845 211:83.066162 212:259.32688 213:80.608142 214:166.60055 215:41.454592 216:113.50704 217:450.30934 218:211.84092 219:328.82549 220:90.180647 221:376.69429 222:52.342716 223:89.490303 224:219.70406 225:171.68044 226:185.04785 227:204.91534 228:190.90047 229:297.0227 230:423.06358 231:259.64155 232:352.69715 233:16.339896 234:240.33106 235:60.436604 236:372.79009 237:42.619042 238:288.49732 239:482.19854 240:127.53965 241:307.30257 242:284.06481 243:151.73997 244:109.04213 245:370.76519 246:228.45838 247:681.52198 248:251.61716 249:361.39249 250:143.256 251:393.23254 252:291.79544 253:312.8211 254:52.860867 255:13.907128 256:448.90287 257:152.58091 258:331.15681 259:184.07726 260:93.133251 261:300.08762 262:151.10917 263:67.968898 264:70.992168 265:227.35927 266:462.22252 267:361.91645 268:243.40891 269:60.853252 270:231.42838 271:186.79535 272:280.4493 273:159.45416 274:363.04347 275:162.96625 276:206.40326 277:366.00584 278:557.76255 279:203.1944 280:117.1366 281:135.02039 282:277.49455 283:144.34645 284:169.26762 285:51.290454 286:102.56594 287:166.99119 288:82.307508 289:481.29233 290:136.40208 291:119.52499 292:228.74875 293:154.2774 294:110.63287 295:23.484213 296:412.88459 297:303.9573 298:146.28767 299:182.87143 300:114.5913 301:291.64988 302:255.26925 303:309.98962 304:168.80405 305:148.40601 306:358.08496 307:174.27128 308:289.45282 309:151.79073 310:233.57097 311:299.6756 312:241.37997 313:141.77242 314:540.51744 315:210.25988 316:411.07284 317:252.32431 318:324.11705 319:263.15566 320:152.49176 321:303.56616 322:131.80324 323:145.3687 324:107.82693 325:32.205458 326:296.67807 327:380.23893 328:274.03007 329:277.82889 330:218.86874 331:697.80093 332:271.8255 333:196.42034 334:145.17923 335:395.02024 336:358.15488 337:126.96742 338:422.71959 339:64.609016 340:247.31189 341:107.63313 342:398.88993 343:409.76291 344:134.33323 345:246.65834 346:231.47347 347:219.31273 348:128.84667 349:209.33407 350:366.06009 351:384.84972 352:507.21391 353:234.03474 354:295.36437 355:189.33394 356:306.76557 357:199.83874 358:382.03583 359:481.00306 360:214.53075 361:211.98855 362:410.62458 363:257.30575 364:376.14128 365:292.97914 366:113.85921 367:108.07432 368:175.28048 369:477.39851 370:221.98946 371:137.15348 372:264.0205 373:637.02901 374:522.48385 375:300.69543 376:234.14946 377:294.90573 378:411.36746 379:50.660552 380:182.08675 381:168.98429 382:249.17821 383:421.75559 384:426.76934 385:145.75463 386:178.85307 387:428.76878 388:78.392138 389:138.15591 390:197.17233 391:261.28798 392:243.92031 393:731.01659 394:602.27873 395:219.24032 396:163.92679 397:205.74389 398:344.37735 399:205.43333 400:138.99774 401:163.36315 402:184.3167 403:451.9093 404:159.74123 405:323.39444 406:117.01771 407:390.7163 408:497.78187 409:916.64837 410:600.15076 411:207.49768 412:336.84595 413:287.65349 414:583.64543 415:99.344414 416:252.89418 417:530.71762 418:78.274509 419:83.751766 420:349.67766 421:549.56773 422:332.28436 423:245.94535 424:199.57514 425:380.95753 426:328.18379 427:24.340456 428:140.50743 429:285.68942 430:83.313868 431:195.32662 432:101.40396 433:365.56933 434:141.30057 435:246.12168 436:204.60549 437:278.93118 438:275.16263 439:188.23695 440:129.41873 441:319.54701 442:279.85515 443:139.31971 444:362.19651 445:52.618443 446:444.92144 447:240.20164 448:148.48078 449:72.650568 450:218.31584 451:249.0482 452:480.74636 453:248.19047 454:385.96946 455:318.20399 456:185.30683 457:138.80806 458:244.79774 459:170.71636 460:358.48822 461:196.56845 462:81.501712 463:415.55772 464:110.27706 465:319.78108 466:304.27672 467:107.46028 468:128.16578 469:710.20816 470:418.78742 471:210.61697 472:270.47126 473:477.35353 474:243.76145 475:242.3153 476:153.38818 477:288.51691 478:138.49192 479:285.69716 480:192.09836 481:267.00827 482:53.836881 483:218.23133 484:111.56434 485:289.53123 486:129.57329 487:82.023732 488:230.9655 489:122.28131 490:135.88798 491:107.55186 492:155.0284 493:269.97717 494:431.16325 495:186.41948 496:371.50855 497:284.34524 498:121.70489 499:254.59971 500:253.77548 501:227.71742 502:97.365084 503:297.7535 504:303.57888 505:243.45436 506:320.02498 507:356.70454 508:147.82018 509:238.00268 510:120.21342 511:318.45507 512:70.322512 513:190.44191 514:438.95851 515:132.24245 516:62.416075 517:350.52475 518:113.30003 519:163.75617 520:110.3296 521:101.88049 522:154.97412 523:177.72341 524:519.62582 525:179.46438 526:31.700594 527:43.603979 528:143.39906 529:406.27 530:418.81772 531:227.46098 532:520.10131 533:298.5396 534:266.2421 535:546.66993 536:272.76407 537:222.89174 538:501.59276 539:146.69844 540:281.36143 541:371.898 542:118.77316 543:241.13133 544:443.90335 545:219.11766 546:187.37195 547:581.06443 548:292.28728 549:158.7105 550:206.67616 551:64.961032 552:43.958757 553:214.90098 554:225.46066 555:391.30866 556:243.39547 557:192.86179 558:426.58954 559:25.458557 560:359.71581 561:272.33523 562:166.87331 563:305.45644 564:229.11293 565:394.97652 566:498.65053 567:305.02906 568:378.9877 569:138.0219 570:187.85152 571:344.49939 572:391.97984 573:289.90552 574:90.761259 575:100.80541 576:212.04441 577:275.81132 578:172.60513 579:16.929706 580:360.42782 581:193.92063 582:537.89919 583:261.63685 584:281.02742 585:171.1152 586:191.78056 587:144.55931 588:273.37951 589:152.76353 590:285.54122 591:191.44192 592:385.93471 593:86.456627 594:415.48245 595:129.17943 596:299.5695 597:283.53148 598:369.0414 599:230.14812 600:401.3092 601:43.454897 602:192.12101 603:228.46803 604:202.05079 605:126.43182 606:129.13587 607:459.66819 608:134.70003 609:213.53127 610:197.89052 611:239.24862 612:205.50125 613:140.09805 614:164.21232 615:239.45602 616:75.273511 617:283.33456 618:156.70333 619:345.48974 620:102.03651 621:166.9327 622:168.81065 623:161.38146 624:201.88581 625:458.90538 626:453.86755 627:323.5187 628:284.2357 629:260.11422 630:343.56505 631:574.34406 632:279.27233 633:182.43215 634:166.64092 635:115.27122 636:349.88953 637:374.71057 638:401.07947 639:343.60867 640:180.03952 641:250.66595 642:230.63414 643:23.765964 644:141.32573 645:129.18141 646:96.218413 647:87.94355 648:90.90263 649:178.74324 650:218.93351 651:81.358894 652:115.13347 653:123.81126 654:107.08686 655:112.46748 656:69.651599 657:277.50602 658:99.575288 659:227.57136 660:85.149614 661:350.07375 662:426.00143 663:233.74327 664:372.95852 665:103.33904 666:292.04934 667:71.700502 668:76.509508 669:125.09277 670:96.52787 671:206.94831 672:242.40301 673:264.17558 674:213.7623 675:104.63663 676:306.42506 677:280.0341 678:27.620402 679:278.8852 680:299.58502 681:193.78681 682:168.45128 683:208.96863 684:213.48773 685:269.98227 686:509.34945 687:22.829004 688:306.3535 689:247.789 690:412.05199 691:520.26291 692:115.11284 693:274.16763 694:380.67556 695:80.722839 696:217.70804 697:82.790119 698:96.492151 699:41.618745 700:199.60166 701:19.035701 702:180.66802 703:59.424877 704:240.08104 705:599.64256 706:129.26133 707:129.48569 708:207.84256 709:118.21281 710:488.33739 711:367.30013 712:605.17505 713:32.901253 714:93.74655 715:304.14573 716:269.72245 717:144.85812 718:204.39528 719:55.808091 720:175.07216 
1 0.7568359375 0.6386890262173446 1:79.403216 2:515.60081 3:346.02131 4:239.473 5:175.24579 6:111.94904 7:126.89859 8:606.668 9:65.063529 10:235.18855 11:180.74216 12:268.24831 13:239.61467 14:305.21903 15:206.72616 16:87.447427 17:246.67349 18:466.67578 19:265.23677 20:204.199 21:376.39727 22:190.45937 23:165.55802 24:321.73454 25:369.38057 26:89.170284 27:709.48375 28:590.21297 29:248.19247 30:307.98809 31:626.54861 32:260.5234 33:86.786563 34:340.38638 35:221.35413 36:833.82988 37:244.67603 38:330.89161 39:303.49037 40:354.24491 41:584.79829 42:174.75189 43:624.16747 44:269.20568 45:102.86858 46:242.67555 47:138.8624 48:54.906113 49:560.43241 50:335.8179 51:300.67844 52:354.0323 53:64.442065 54:105.93303 55:171.304 56:353.35949 57:291.25807 58:182.99642 59:252.8917 60:586.07796 61:277.57899 62:360.83924 63:478.14898 64:60.374429 65:235.29806 66:306.50372 67:374.9545 68:61.531528 69:184.82503 70:348.53114 71:349.82804 72:289.01787 73:317.52859 74:81.655344 75:289.91166 76:241.37162 77:391.25834 78:369.22901 79:348.84934 80:454.19827 81:529.8913 82:361.62429 83:154.96655 84:173.40438 85:341.86388 86:394.11308 87:203.04502 88:183.17372 89:310.8927 90:325.36963 91:325.21379 92:442.9031 93:74.30054 94:146.49081 95:137.57082 96:450.73129 97:866.15564 98:366.45945 99:478.51898 100:232.38583 101:190.63526 102:385.63975 103:87.109718 104:456.14725 105:237.43596 106:198.21678 107:182.43493 108:311.78239 109:232.41082 110:218.18743 111:534.86678 112:225.96423 113:453.62185 114:328.58519 115:292.06831 116:426.21309 117:454.44888 118:220.7523 119:328.02787 120:320.9709 121:219.63503 122:123.65445 123:300.29852 124:173.7542 125:242.53214 126:408.4086 127:272.20419 128:418.96394 129:175.07441 130:122.77724 131:170.29334 132:209.1343 133:409.2927 134:349.54335 135:103.23351 136:568.75879 137:320.59406 138:346.01009 139:93.997156 140:138.84613 141:200.60194 142:94.439841 143:606.94053 144:458.7907 145:132.92221 146:280.1884 147:187.93181 148:385.94122 149:302.97718 150:444.61022 151:220.48316 152:237.83618 153:317.12585 154:74.026161 155:176.81597 156:148.142 157:169.7366 158:518.16532 159:439.81971 160:103.22365 161:32.528563 162:82.564171 163:348.66266 164:272.41591 165:239.83647 166:245.04603 167:193.51273 168:322.22324 169:412.09436 170:386.34147 171:222.26253 172:220.86206 173:552.67062 174:162.77704 175:391.05538 176:144.16087 177:149.34816 178:144.45278 179:139.58945 180:382.85468 181:449.74276 182:130.53363 183:238.33007 184:422.46043 185:221.84055 186:270.98482 187:318.85102 188:240.68584 189:352.53481 190:411.56212 191:163.23415 192:382.90976 193:321.28827 194:539.62882 195:28.790104 196:214.73557 197:618.87859 198:312.63065 199:393.79534 200:207.29542 201:233.05931 202:87.039685 203:225.98952 204:450.25788 205:123.90231 206:135.06842 207:164.3387 208:84.894416 209:322.24299 210:138.00267 211:15.66658 212:183.82331 213:140.49871 214:492.42109 215:451.48588 216:428.53267 217:616.79045 218:139.58865 219:428.41382 220:206.49313 221:316.29957 222:126.76304 223:245.7056 224:121.33955 225:201.90618 226:335.52468 227:366.18979 228:286.74565 229:380.92041 230:200.69664 231:77.843148 232:9.836444 233:173.12613 234:125.13253 235:172.72536 236:63.29869 237:168.3231 238:127.87289 239:271.85975 240:149.21065 241:609.29698 242:298.69822 243:553.71089 244:248.12237 245:127.81101 246:337.157 247:330.08006 248:658.62338 249:331.53852 250:370.03493 251:493.22182 252:336.20217 253:126.0885 254:196.54634 255:367.40411 256:306.85519 257:310.39039 258:312.9037 259:300.74719 260:69.810084 261:38.100379 262:462.11683 263:185.41321 264:274.45186 265:211.6083 266:279.55659 267:445.1937 268:225.71928 269:409.05678 270:344.06679 271:61.039361 272:327.26558 273:138.30566 274:300.81043 275:173.58257 276:260.83294 277:255.05115 278:150.17861 279:100.80871 280:114.16439 281:122.73259 282:370.65857 283:628.89376 284:410.69795 285:188.65213 286:322.7175 287:194.61546 288:479.32271 289:508.65462 290:159.00036 291:592.9281 292:333.66669 293:113.47229 294:316.17725 295:642.04209 296:209.01663 297:431.66129 298:462.98503 299:314.90241 300:255.42033 301:267.82172 302:345.28872 303:517.94812 304:164.37852 305:411.89415 306:202.33068 307:580.50124 308:144.10629 309:313.48667 310:489.43016 311:275.47994 312:308.21989 313:711.84085 314:435.34939 315:781.55339 316:318.32921 317:224.63816 318:390.72314 319:632.23571 320:217.19293 321:314.72229 322:418.79123 323:287.40376 324:180.17037 325:64.075213 326:353.94007 327:365.88418 328:120.50182 329:122.60118 330:88.359765 331:123.78911 332:153.46431 333:84.907417 334:170.79073 335:91.329247 336:217.24637 337:379.87592 338:448.19811 339:239.76832 340:156.9968 341:466.40507 342:452.01627 343:188.70491 344:268.52732 345:186.5965 346:161.92096 347:159.17276 348:228.92824 349:145.9824 350:110.39169 351:76.686565 352:11.856475 353:55.056353 354:61.93238 355:0.22466951 356:0.14029752 357:0.094905592 358:0.15378126 359:0.15705992 360:0.067758084 361:77.832228 362:120.7963 363:161.01649 364:19.12054 365:108.04619 366:80.008701 367:67.113296 368:225.04511 369:174.81391 370:212.74053 371:195.37938 372:156.49381 373:83.120575 374:125.04829 375:114.42304 376:139.4251 377:122.64792 378:75.200965 379:59.264821 380:21.34819 381:50.656972 382:48.310129 383:51.283173 384:118.09134 385:579.06613 386:159.3612 387:607.0996 388:343.38492 389:358.29082 390:403.4377 391:414.32651 392:308.70554 393:987.43745 394:513.00564 395:311.68248 396:125.18968 397:273.96399 398:486.06522 399:770.19129 400:387.00753 401:417.17788 402:191.4982 403:497.54439 404:185.99673 405:207.02831 406:127.46988 407:356.79853 408:120.18681 409:256.80371 410:171.3872 411:428.433 412:395.43649 413:281.57088 414:301.89498 415:603.29793 416:258.72155 417:338.88284 418:477.65429 419:502.96394 420:277.65493 421:332.33136 422:266.41471 423:212.32404 424:235.74163 425:106.08705 426:332.81422 427:292.06298 428:455.95584 429:97.727551 430:19.39751 431:435.6878 432:177.38765 433:189.35225 434:311.18046 435:102.27404 436:17.098599 437:228.27955 438:13.980726 439:122.06687 440:410.20383 441:81.397536 442:128.87806 443:321.58958 444:374.35554 445:179.14748 446:137.4647 447:234.55304 448:346.06321 449:264.57746 450:309.96824 451:391.45911 452:269.62247 453:470.149 454:454.57763 455:356.07161 456:152.82344 457:261.96977 458:129.49309 459:608.73244 460:80.698988 461:160.74527 462:292.14704 463:184.03846 464:430.66273 465:277.53217 466:343.66588 467:66.74915 468:167.2936 469:121.89801 470:99.215872 471:62.180444 472:177.89818 473:142.78035 474:132.05928 475:42.477294 476:378.30478 477:315.89644 478:218.35554 479:201.90067 480:212.92791 481:132.12552 482:201.88239 483:214.60218 484:106.49345 485:49.794826 486:149.714 487:168.57688 488:435.49993 489:477.47205 490:121.28372 491:420.32416 492:410.7873 493:219.48353 494:161.61983 495:165.25051 496:118.52848 497:232.76715 498:14.074395 499:281.36168 500:796.57055 501:495.78599 502:101.29141 503:109.08047 504:8.4672219 505:292.90987 506:258.03704 507:281.53841 508:341.11516 509:388.56476 510:236.01542 511:632.12647 512:284.53357 513:539.31951 514:148.50628 515:46.519394 516:306.1029 517:333.16709 518:275.34118 519:214.27293 520:126.68369 521:376.62326 522:269.8309 523:269.44684 524:126.78511 525:277.3638 526:124.93269 527:206.87939 528:30.478547 529:384.28376 530:235.51713 531:209.98627 532:298.39192 533:252.88573 534:110.28433 535:303.14185 536:128.94962 537:248.01079 538:105.43821 539:408.37697 540:68.119304 541:292.89862 542:275.86094 543:88.413077 544:144.46933 545:152.55945 546:288.84933 547:285.4819 548:225.95761 549:217.41393 550:368.09204 551:51.843409 552:278.867 553:375.59048 554:559.41233 555:382.40221 556:117.62384 557:236.10479 558:191.59314 559:128.67244 560:375.54626 561:273.95884 562:52.35897 563:202.15229 564:111.37795 565:448.58302 566:279.15567 567:320.21105 568:197.38406 569:254.91518 570:263.42028 571:332.0967 572:315.07734 573:219.15972 574:459.43141 575:141.87164 576:278.27211 577:277.89333 578:180.97756 579:128.71229 580:64.079016 581:128.58542 582:137.28819 583:79.578767 584:372.43856 585:242.80584 586:186.052 587:247.05224 588:182.59782 589:164.98927 590:226.65481 591:166.48008 592:253.44565 593:388.74075 594:114.50478 595:795.49547 596:180.48698 597:124.8874 598:182.83513 599:186.61139 600:221.36886 601:135.08821 602:191.54972 603:217.88219 604:207.64728 605:90.078854 606:211.00906 607:228.9328 608:543.26312 609:448.59588 610:148.21985 611:83.010262 612:170.5023 613:192.19971 614:187.85905 615:132.34728 616:35.728825 617:196.56016 618:217.25127 619:271.35293 620:166.51251 621:102.30023 622:95.728073 623:253.95778 624:176.48834 625:283.89375 626:388.61738 627:280.58568 628:22.655406 629:159.10177 630:152.53222 631:308.48997 632:262.07159 633:811.08868 634:454.87974 635:405.31687 636:242.34128 637:51.174416 638:269.32334 639:559.54602 640:91.417242 641:141.76282 642:460.40544 643:26.598445 644:291.73449 645:117.46172 646:167.52648 647:271.33481 648:220.44161 649:369.45162 650:269.36603 651:76.526109 652:375.59349 653:277.7185 654:176.31401 655:170.40467 656:139.6872 657:278.98156 658:259.24984 659:154.0452 660:276.88873 661:352.51782 662:94.425815 663:219.35016 664:276.93524 665:277.55259 666:236.59115 667:266.24701 668:429.16215 669:210.24392 670:145.59836 671:195.36654 672:334.40455 673:219.23263 674:288.14561 675:175.39073 676:136.69055 677:147.04981 678:336.41657 679:203.30642 680:128.53938 681:248.55817 682:265.7858 683:279.75934 684:61.432241 685:267.99965 686:37.3051 687:30.586008 688:245.25819 689:82.324299 690:252.16405 691:206.21451 692:232.71293 693:215.55702 694:41.2542 695:94.237357 696:170.85538 697:725.30838 698:450.35508 699:205.4349 700:96.589035 701:135.82894 702:316.19691 703:105.98682 704:312.3761 705:198.89199 706:5.2940078 707:63.326895 708:290.49525 709:189.46969 710:342.87969 711:75.127063 712:238.20374 713:49.151836 714:176.6768 715:386.44329 716:160.61837 717:139.70231 718:173.66984 719:299.54327 720:210.86958 
1 0.7568359375 0.6386890262173446 1:11.348504 2:14.083429 3:6.7270908 4:9.6655936 5:5.1825241 6:8.8545189 7:7.7939633 8:18.63234 9:15.869228 10:14.310635 11:23.232282 12:6.6076728 13:14.623975 14:31.145061 15:22.086499 16:5.7456986 17:14.221796 18:13.471937 19:5.926715 20:31.593186 21:26.428666 22:17.987627 23:12.660294 24:11.595903 25:13.178821 26:8.3927237 27:14.139931 28:6.3300133 29:21.250198 30:7.7718002 31:47.685711 32:16.378357 33:29.37266 34:29.220894 35:7.9805023 36:11.073039 37:20.600143 38:16.925857 39:11.323825 40:10.671218 41:10.879928 42:21.449636 43:15.623752 44:18.141206 45:6.9602368 46:13.024902 47:19.227268 48:18.898822 49:8.986952 50:15.281912 51:7.2010247 52:3.8432869 53:4.3297766 54:7.8417096 55:24.376341 56:30.088101 57:22.93014 58:4.2940384 59:10.443999 60:15.305992 61:24.552759 62:19.298908 63:18.803734 64:11.453816 65:8.5859648 66:18.765147 67:50.362405 68:37.786102 69:9.3659234 70:17.259117 71:24.656435 72:14.519321 73:33.409477 74:16.791057 75:33.007207 76:18.755738 77:19.267001 78:28.322758 79:7.0763566 80:29.618313 81:25.919959 82:25.121804 83:21.722452 84:2.1051617 85:35.861937 86:24.792389 87:30.598916 88:18.324039 89:8.1358688 90:21.755642 91:32.518759 92:21.948747 93:19.241461 94:19.308379 95:5.4862407 96:9.2210151 97:7.0484398 98:28.089863 99:12.00272 100:10.325959 101:17.026031 102:20.331949 103:12.758931 104:4.4075785 105:9.7247371 106:9.4037144 107:3.0869396 108:5.807548 109:15.836399 110:21.838174 111:32.759664 112:4.5775836 113:16.465061 114:11.597964 115:11.068401 116:15.721938 117:22.05517 118:10.34881 119:5.133663 120:6.773864 121:5.1207015 122:5.9081381 123:14.065697 124:3.0314506 125:12.065465 126:4.6829811 127:32.439341 128:27.708209 129:24.08828 130:16.140208 131:4.3990136 132:5.191262 133:13.14057 134:22.839433 135:20.036633 136:3.3849326 137:8.5189207 138:12.229212 139:2.2398789 140:5.8438525 141:9.4650013 142:9.8633023 143:4.1385089 144:10.240035 145:35.723292 146:4.9173685 147:13.707863 148:12.147753 149:4.8807275 150:16.013902 151:25.238421 152:10.296973 153:12.172435 154:13.296939 155:13.598248 156:8.6755982 157:18.961485 158:15.81213 159:12.060121 160:12.69462 161:7.5232796 162:9.8141389 163:10.440409 164:5.6828787 165:3.1080417 166:14.601415 167:2.117804 168:8.9705815 169:22.220856 170:24.691543 171:11.478455 172:4.6474375 173:3.4954978 174:4.2368376 175:23.322889 176:2.8800726 177:17.756886 178:7.6261591 179:2.2089822 180:14.334299 181:19.576982 182:26.616805 183:15.319036 184:3.5173814 185:2.1676832 186:4.2849893 187:5.511496 188:10.137963 189:38.282957 190:35.563235 191:24.734763 192:19.893213 193:54.042256 194:7.389901 195:12.745272 196:3.1201759 197:10.566859 198:9.5310444 199:15.474303 200:33.485372 201:21.728856 202:6.4979582 203:27.398999 204:20.894302 205:17.941083 206:44.929171 207:16.68996 208:13.396826 209:28.770614 210:19.972807 211:14.984524 212:31.521853 213:24.142881 214:12.727088 215:19.562427 216:15.297815 217:21.314355 218:65.567489 219:56.71795 220:29.880163 221:25.890598 222:3.1092587 223:21.94226 224:33.36082 225:21.656584 226:18.289495 227:29.377962 228:29.8256 229:53.023705 230:32.586935 231:47.058384 232:9.9381883 233:9.9202348 234:21.051197 235:21.873753 236:44.449511 237:52.639145 238:2.2146761 239:14.062106 240:9.1235203 241:17.164692 242:26.209527 243:17.135419 244:20.578483 245:23.266286 246:24.740905 247:44.130382 248:18.675238 249:16.869486 250:8.3805745 251:3.7739954 252:13.384956 253:29.88194 254:7.0329356 255:13.092228 256:19.186512 257:24.81728 258:7.8227521 259:17.188621 260:23.45787 261:12.947979 262:10.338405 263:11.835768 264:16.149326 265:11.131298 266:44.55667 267:22.207536 268:23.014589 269:4.0574733 270:22.650009 271:30.437594 272:21.180288 273:24.804679 274:10.841352 275:37.361286 276:10.524351 277:15.054202 278:29.173641 279:22.130435 280:8.0497654 281:6.0395008 282:14.89099 283:15.560617 284:10.753367 285:10.971218 286:16.729317 287:14.199918 288:14.512644 289:17.205343 290:9.8807978 291:5.2846439 292:32.567376 293:6.2137482 294:49.370117 295:19.801114 296:37.642266 297:30.305332 298:13.512049 299:29.826324 300:17.098063 301:30.357345 302:46.112381 303:19.567925 304:23.78736 305:25.195463 306:19.370259 307:130.78855 308:114.07101 309:94.015808 310:111.56792 311:88.880789 312:68.91778 313:103.6352 314:101.09115 315:78.97541 316:27.153731 317:23.103922 318:21.314355 319:31.646765 320:3.5926841 321:36.603873 322:24.733336 323:59.413315 324:26.881656 325:43.066452 326:60.040413 327:47.79254 328:13.371108 329:25.617574 330:23.134346 331:7.4852899 332:25.83463 333:14.7133 334:11.275811 335:50.153591 336:39.140509 337:6.4930481 338:24.762836 339:38.451756 340:18.042152 341:14.689954 342:47.261622 343:64.729481 344:33.37609 345:27.820283 346:41.82152 347:13.988745 348:24.777571 349:54.707681 350:52.908561 351:18.538311 352:14.459343 353:44.238501 354:51.021253 355:11.924957 356:33.399342 357:56.610263 358:28.166994 359:14.118521 360:44.597159 361:11.548715 362:26.281323 363:34.294118 364:13.742817 365:49.466975 366:29.35651 367:30.969237 368:23.100301 369:13.155079 370:38.181199 371:8.7214923 372:12.899429 373:14.216892 374:20.696488 375:30.694041 376:2.3571743 377:12.22998 378:17.635203 379:7.520544 380:21.217677 381:4.2297271 382:69.06697 383:13.994504 384:9.984757 385:35.940218 386:57.516358 387:25.695281 388:16.998527 389:34.75543 390:18.301483 391:41.397902 392:24.569177 393:39.653589 394:21.331723 395:16.027597 396:27.669135 397:13.36632 398:23.464498 399:14.996604 400:6.2103777 401:28.740832 402:30.22778 403:17.168458 404:11.282408 405:21.377026 406:17.429927 407:9.0745565 408:10.789791 409:37.052114 410:25.951696 411:7.7472023 412:13.555376 413:10.659137 414:20.584801 415:16.700269 416:13.682117 417:30.550461 418:15.260392 419:23.691678 420:12.712374 421:52.426679 422:24.880985 423:23.791161 424:22.894814 425:11.324527 426:15.298081 427:47.359658 428:74.020452 429:11.568686 430:48.030428 431:7.9901782 432:19.217918 433:9.2120108 434:33.37045 435:15.308283 436:16.054676 437:16.803755 438:10.757916 439:32.750242 440:36.166117 441:4.1358503 442:39.274529 443:14.408263 444:15.008079 445:42.589491 446:28.031908 447:5.3628528 448:27.035723 449:7.7092774 450:22.678857 451:23.247961 452:22.517856 453:23.910017 454:30.999654 455:17.846528 456:18.430974 457:45.532115 458:18.22597 459:35.997351 460:25.629947 461:41.964694 462:25.395444 463:12.674287 464:55.494999 465:38.703908 466:36.384225 467:7.8629412 468:35.259191 469:21.247921 470:16.877779 471:21.299324 472:8.3323507 473:8.9161792 474:16.238959 475:64.566075 476:57.693538 477:17.589219 478:31.118234 479:24.685457 480:19.033037 481:27.043018 482:24.801036 483:57.696958 484:36.550584 485:14.76605 486:47.18368 487:20.833008 488:21.780354 489:22.709952 490:17.116284 491:13.830545 492:5.3183114 493:21.278064 494:3.6490554 495:7.6790905 496:12.87354 497:24.964618 498:0.66878042 499:7.2067656 500:4.6157312 501:24.488117 502:28.076951 503:4.0420825 504:15.528787 505:32.156533 506:15.864304 507:11.47959 508:17.535217 509:22.285521 510:11.135981 511:1.0220363 512:30.357466 513:14.630968 514:14.133366 515:5.8653439 516:26.326997 517:47.989414 518:10.378652 519:8.4020445 520:9.1184811 521:14.468182 522:15.421551 523:13.620723 524:18.927823 525:15.180921 526:24.764946 527:26.353234 528:8.2047548 529:20.500967 530:30.316608 531:16.662474 532:6.7030239 533:28.775967 534:22.890456 535:26.033595 536:35.498433 537:50.37314 538:15.293243 539:17.836198 540:4.0437486 541:52.418626 542:53.463585 543:26.818195 544:23.824168 545:13.534326 546:10.785399 547:24.955355 548:25.889338 549:50.073947 550:24.59093 551:59.456816 552:7.4964783 553:17.698012 554:33.298108 555:41.917236 556:52.217581 557:13.806407 558:36.004838 559:11.478496 560:34.07909 561:39.462212 562:28.075816 563:28.587538 564:28.167911 565:23.961983 566:16.076166 567:11.961164 568:34.943682 569:5.6470076 570:8.382636 571:58.108152 572:52.403851 573:24.716731 574:13.553521 575:18.266832 576:22.889658 577:11.800237 578:25.035232 579:24.424153 580:10.900615 581:17.334609 582:22.239982 583:28.345543 584:33.832062 585:21.285046 586:11.09375 587:22.262048 588:34.211274 589:25.621737 590:9.9777005 591:26.320151 592:21.41376 593:9.9917616 594:24.766355 595:6.2034369 596:17.349888 597:12.887175 598:39.173573 599:29.470806 600:20.002737 601:16.729508 602:27.20208 603:31.664277 604:21.940448 605:10.573837 606:15.826233 607:27.564751 608:55.960929 609:15.053528 610:31.190245 611:22.564004 612:27.40001 613:20.315048 614:7.6505449 615:23.62276 616:12.62032 617:10.55121 618:7.1312877 619:13.587523 620:30.880443 621:26.114745 622:10.125527 623:18.393278 624:6.3342477 625:15.488239 626:30.617051 627:24.524718 628:7.5145356 629:13.180941 630:12.369004 631:16.074883 632:31.80442 633:4.027091 634:36.97365 635:13.104129 636:11.140207 637:58.951552 638:31.294109 639:25.42237 640:53.309223 641:22.149948 642:16.170643 643:42.813782 644:33.161858 645:29.961985 646:22.667665 647:17.036026 648:16.261078 649:42.722067 650:8.2784106 651:13.987435 652:1.0304927 653:13.76275 654:12.014442 655:26.376703 656:21.896733 657:12.993318 658:9.1530832 659:4.0926726 660:27.949835 661:9.2713739 662:23.39439 663:6.5786582 664:2.4910191 665:19.216273 666:5.3565089 667:45.07999 668:32.708547 669:19.881986 670:9.7192076 671:10.299342 672:21.831614 673:35.157912 674:39.651108 675:6.7018268 676:28.544891 677:10.677625 678:14.680266 679:15.74984 680:19.695637 681:15.137499 682:8.0894596 683:12.386189 684:10.870525 685:24.22368 686:19.292264 687:15.174977 688:17.470495 689:2.5318649 690:15.112209 691:20.265059 692:6.6968223 693:18.011511 694:19.100664 695:19.534603 696:16.984815 697:11.426678 698:13.570595 699:10.291293 700:7.358858 701:5.9183291 702:6.6407432 703:15.403507 704:47.367743 705:31.320292 706:22.314998 707:25.273269 708:9.1136925 709:14.270348 710:13.435606 711:21.498742 712:29.728566 713:9.7160572 714:8.9177764 715:25.211264 716:33.865347 717:15.134506 718:4.8884352 719:22.277056 720:17.968505 
1 0.7568359375 0.6386887115976303 1:34.794796 2:40.054421 3:22.891013 4:3.7183522 5:4.2067321 6:18.161786 7:30.449276 8:20.868937 9:2.2973228 10:14.173946 11:11.458902 12:2.6908354 13:20.96246 14:9.598645 15:17.633712 16:20.913046 17:21.434759 18:8.047229 19:18.431167 20:23.336199 21:10.804208 22:33.375733 23:22.632157 24:38.990191 25:30.618293 26:30.88742 27:15.521686 28:31.109954 29:21.418099 30:17.988114 31:28.8827 32:15.174726 33:7.3325775 34:15.85018 35:19.138059 36:9.9324436 37:11.213612 38:14.833939 39:2.2652716 40:4.9842558 41:5.4771133 42:7.2908053 43:30.868275 44:31.164368 45:15.520761 46:19.822847 47:19.12709 48:14.499572 49:24.576376 50:27.414343 51:9.4785278 52:7.747882 53:5.9572926 54:10.113165 55:11.864979 56:27.890446 57:10.626626 58:13.996384 59:27.344232 60:10.479174 61:27.215044 62:12.701273 63:33.413521 64:15.865169 65:8.9022581 66:9.2328357 67:20.079201 68:12.231432 69:19.07626 70:9.4921874 71:5.1958984 72:0.82509976 73:10.488186 74:20.17084 75:8.7062551 76:36.377668 77:23.304671 78:24.249702 79:11.947758 80:10.657293 81:10.340026 82:11.146552 83:6.3134909 84:3.1058514 85:9.8088227 86:26.551475 87:9.8197885 88:9.0443482 89:15.475564 90:5.6489484 91:26.865948 92:5.4554699 93:16.244053 94:14.223728 95:10.151667 96:8.0116676 97:11.464231 98:14.182199 99:1.7360329 100:9.1423891 101:5.8122743 102:10.983549 103:50.297824 104:16.731883 105:14.144646 106:20.536218 107:18.443051 108:11.445471 109:34.279556 110:15.761381 111:16.353757 112:29.833441 113:20.169409 114:18.193446 115:33.391838 116:6.3357742 117:17.030812 118:25.068523 119:7.5922941 120:2.105061 121:25.949532 122:6.2028875 123:35.500216 124:13.805078 125:11.524486 126:17.921913 127:23.370474 128:22.973147 129:31.871615 130:3.3278204 131:9.3718105 132:27.596868 133:14.24556 134:5.086291 135:2.3968864 136:14.969329 137:12.985209 138:1.7568909 139:18.424708 140:12.721891 141:27.239922 142:13.379363 143:22.650408 144:6.2556123 145:24.100257 146:7.8065669 147:23.168122 148:4.7459352 149:18.613607 150:11.473328 151:26.712041 152:13.494526 153:26.875599 154:12.56448 155:22.040404 156:4.6690988 157:24.301793 158:23.521223 159:1.1568886 160:39.576894 161:13.658027 162:29.843303 163:19.392352 164:7.2994093 165:19.391466 166:21.368368 167:3.8562701 168:20.327755 169:14.06655 170:20.315463 171:9.8980397 172:25.062413 173:1.3830691 174:17.391622 175:19.839173 176:21.262902 177:18.489799 178:8.9223497 179:8.5736131 180:17.305671 181:34.493272 182:10.423801 183:9.3846317 184:17.163039 185:11.053982 186:6.9871703 187:21.079356 188:24.125919 189:11.070543 190:37.103842 191:26.997408 192:14.449326 193:30.553606 194:26.194659 195:20.115922 196:14.821228 197:13.208936 198:18.128471 199:36.543761 200:13.257858 201:26.152808 202:12.669973 203:16.525853 204:11.576725 205:20.868723 206:11.492945 207:20.256128 208:4.3259695 209:6.5789895 210:15.012083 211:21.248859 212:29.528636 213:4.0783357 214:12.637064 215:14.751689 216:26.549402 217:11.565808 218:16.263454 219:14.911936 220:17.962019 221:8.000309 222:2.4437169 223:11.942044 224:14.237 225:16.11994 226:19.236313 227:12.696338 228:5.9299465 229:39.838061 230:4.1065876 231:31.699566 232:28.315323 233:7.1065973 234:15.265125 235:10.718544 236:51.749289 237:26.702755 238:13.957578 239:6.1672173 240:49.110218 241:9.1327434 242:8.6017078 243:6.3213569 244:6.9906294 245:4.6135685 246:6.3241512 247:20.544673 248:31.222098 249:14.717431 250:14.574096 251:20.722156 252:13.485733 253:27.515782 254:44.077471 255:27.091222 256:9.426112 257:15.402445 258:10.355532 259:31.744326 260:4.492121 261:23.186872 262:15.920001 263:19.633053 264:12.392721 265:28.988064 266:32.269966 267:6.7901928 268:20.095527 269:8.7443231 270:17.156207 271:7.5244497 272:16.649322 273:8.1415967 274:9.964448 275:7.6106597 276:10.920978 277:14.526859 278:27.772272 279:13.5322 280:13.322001 281:15.444679 282:1.2393384 283:34.512597 284:15.962708 285:18.39915 286:21.574039 287:21.430261 288:18.252459 289:53.684085 290:4.496284 291:41.840055 292:18.325483 293:15.453138 294:10.540701 295:13.701387 296:25.269493 297:23.693204 298:6.7752226 299:12.3521 300:18.957654 301:9.9623716 302:20.896849 303:14.503135 304:9.2962455 305:12.373327 306:3.8095146 307:4.4537911 308:23.11876 309:16.662916 310:7.1125521 311:4.4801006 312:9.8082223 313:11.722242 314:10.914345 315:14.043495 316:3.9524072 317:17.156508 318:3.8421273 319:31.883031 320:25.273261 321:17.072712 322:7.5251921 323:21.764028 324:20.927669 325:33.77025 326:22.625033 327:18.502564 328:16.823075 329:2.480658 330:14.01002 331:16.206831 332:4.9136723 333:24.335573 334:20.936653 335:13.98159 336:12.619444 337:19.95442 338:12.54586 339:31.9117 340:16.623107 341:40.106086 342:15.811507 343:30.072807 344:33.053255 345:28.741467 346:24.035105 347:10.534707 348:28.052111 349:29.053426 350:20.544913 351:22.292061 352:43.146297 353:39.853958 354:50.395763 355:15.625254 356:16.265945 357:32.445995 358:46.154302 359:34.923105 360:30.387607 361:22.145548 362:43.455348 363:13.323068 364:37.629529 365:24.269317 366:32.07098 367:32.439846 368:30.170479 369:42.38541 370:20.199071 371:29.16117 372:39.727802 373:14.420624 374:37.851208 375:6.3719778 376:13.673843 377:24.181444 378:27.26078 379:23.037809 380:17.142678 381:21.72222 382:32.79344 383:23.26315 384:15.590396 385:16.465928 386:20.273074 387:23.305202 388:24.87646 389:5.1252407 390:34.641402 391:33.917835 392:14.469289 393:10.841938 394:34.469896 395:28.887912 396:10.90489 397:15.38742 398:16.211582 399:8.8756377 400:11.696251 401:8.0602971 402:9.946056 403:17.668169 404:4.9854395 405:31.25208 406:16.000354 407:3.7460465 408:2.1103759 409:24.884328 410:17.18075 411:24.596261 412:11.679786 413:27.97288 414:7.1732161 415:15.572087 416:12.635296 417:11.033482 418:25.350666 419:16.2915 420:12.483628 421:41.223648 422:26.073078 423:27.084704 424:17.677656 425:9.5731287 426:3.8659839 427:41.099633 428:31.091359 429:40.248363 430:23.213996 431:31.262773 432:8.5028 433:20.008406 434:9.5954503 435:2.7970229 436:0.99356492 437:21.172841 438:11.681951 439:19.019005 440:11.150969 441:12.787692 442:18.691372 443:23.501406 444:15.090156 445:22.396182 446:16.36748 447:33.915142 448:17.10348 449:15.950248 450:8.2529131 451:26.521657 452:7.6948521 453:32.124705 454:15.494277 455:12.94002 456:12.422905 457:7.2257169 458:7.6989471 459:17.861577 460:22.705324 461:14.703606 462:2.476398 463:3.5273524 464:28.657949 465:21.818979 466:9.1219666 467:7.3093119 468:25.799853 469:14.364216 470:9.5877862 471:40.628853 472:36.522864 473:23.471066 474:17.186834 475:13.148019 476:10.206233 477:14.426297 478:16.263324 479:16.445092 480:4.3074433 481:24.196667 482:25.069852 483:7.8759972 484:13.910451 485:18.235973 486:16.033219 487:9.8027631 488:8.0627977 489:15.467197 490:17.355828 491:10.017498 492:8.4304025 493:18.608546 494:7.173348 495:5.5588783 496:14.457802 497:10.122421 498:4.9647755 499:33.182251 500:38.320759 501:12.166035 502:18.285622 503:18.432897 504:5.2396635 505:29.889005 506:18.928732 507:16.995923 508:16.741887 509:13.747842 510:18.742297 511:15.180272 512:11.020764 513:38.223461 514:15.575015 515:4.6153962 516:13.731331 517:39.170393 518:21.709775 519:29.389033 520:30.903655 521:5.4556508 522:23.887821 523:10.226637 524:13.001874 525:19.807231 526:14.096275 527:13.195282 528:11.216617 529:52.759652 530:23.552168 531:34.860106 532:2.6560974 533:24.35033 534:16.948922 535:22.042559 536:20.974279 537:11.142538 538:10.350713 539:15.335337 540:9.8969821 541:7.4370797 542:9.3496288 543:8.2665624 544:14.424593 545:11.790645 546:2.2128129 547:3.1823132 548:20.800064 549:25.08127 550:18.294703 551:17.648702 552:4.0918654 553:10.570837 554:28.349647 555:30.503743 556:5.2471121 557:10.043714 558:17.632268 559:13.315265 560:15.479677 561:17.247588 562:10.73757 563:10.893704 564:10.222313 565:10.398658 566:18.423388 567:13.877111 568:29.158122 569:11.229704 570:5.3321616 571:16.926011 572:3.09175 573:6.230514 574:10.435417 575:8.9224225 576:13.342786 577:16.634587 578:14.118499 579:13.718782 580:17.169993 581:4.1621562 582:14.346904 583:18.297157 584:20.353612 585:6.1250976 586:8.4265972 587:4.5416806 588:15.898515 589:7.9345847 590:4.7580119 591:8.4062418 592:10.560943 593:19.323183 594:13.459776 595:12.377739 596:1.8191521 597:3.5705828 598:5.053858 599:3.9307559 600:1.0965161 601:30.597634 602:9.6818059 603:4.6008846 604:17.092676 605:9.8932751 606:6.847181 607:15.096272 608:11.147285 609:6.1693787 610:29.700475 611:13.304764 612:9.5031108 613:24.555663 614:14.721731 615:16.439927 616:12.310841 617:19.298949 618:5.0951135 619:30.793565 620:14.672219 621:40.999889 622:3.3606373 623:18.744385 624:23.576004 625:12.62994 626:17.094824 627:14.882271 628:3.2999068 629:5.466239 630:20.339742 631:15.551065 632:12.538113 633:18.32507 634:14.000637 635:11.082086 636:17.692166 637:15.301789 638:26.281825 639:29.751105 640:24.588324 641:5.2593102 642:8.6888185 643:14.812561 644:5.1223887 645:16.337013 646:23.668263 647:12.14074 648:7.5458529 649:9.3763112 650:2.3185826 651:9.8553626 652:9.5633508 653:10.543621 654:8.5789818 655:30.300923 656:36.901572 657:25.581521 658:3.343409 659:35.609202 660:24.097907 661:34.787493 662:33.301376 663:19.236231 664:23.839745 665:24.07415 666:15.205367 667:66.308545 668:18.185912 669:35.17827 670:27.735295 671:19.938278 672:24.498435 673:21.196988 674:17.049398 675:13.419252 676:7.842424 677:4.8668051 678:8.6709792 679:18.235775 680:22.838552 681:27.598757 682:18.07779 683:17.870096 684:5.405586 685:13.576293 686:15.53308 687:13.564587 688:6.8611168 689:23.095928 690:34.774444 691:11.425702 692:12.900373 693:10.017725 694:1.4051507 695:8.9525643 696:21.916 697:21.127611 698:17.49361 699:29.173271 700:7.856592 701:29.952069 702:24.06724 703:17.138145 704:7.5212189 705:14.672427 706:11.852171 707:11.275117 708:19.394073 709:32.187336 710:19.925434 711:24.880562 712:13.696908 713:12.434802 714:23.850532 715:9.6297165 716:34.506914 717:17.246469 718:20.275924 719:16.3788 720:33.093315 
1 0.7568359375 0.6386819910190619 1:48.403625 2:51.601701 3:35.135055 4:19.014807 5:3.9278195 6:10.808089 7:28.596958 8:14.672592 9:21.332772 10:7.7378436 11:31.31999 12:20.050094 13:47.216054 14:9.1166201 15:12.990308 16:5.9601045 17:32.434382 18:33.251844 19:67.79505 20:43.827439 21:25.512046 22:30.246304 23:30.231011 24:8.6064804 25:30.073643 26:47.499896 27:11.813735 28:22.079691 29:19.030985 30:23.716607 31:22.410907 32:6.7063423 33:5.6335329 34:5.8616074 35:6.0268584 36:2.0107592 37:9.2093422 38:32.03483 39:34.93698 40:31.183393 41:35.997236 42:14.621299 43:7.278568 44:10.663519 45:8.5545153 46:11.112566 47:8.4720105 48:1.5414778 49:21.740388 50:8.7654763 51:4.8563034 52:10.025662 53:5.272005 54:11.584409 55:17.946719 56:13.952498 57:12.047329 58:7.358477 59:16.702198 60:12.69784 61:9.0789755 62:4.751561 63:13.038675 64:20.055942 65:8.917692 66:11.277285 67:2.2303619 68:9.8215669 69:5.4598907 70:7.1446452 71:24.639392 72:5.9754083 73:7.499746 74:26.53822 75:15.969107 76:12.63572 77:4.2676179 78:4.2140585 79:16.717287 80:17.86205 81:5.5133228 82:17.345773 83:12.97333 84:25.323249 85:27.995367 86:32.050318 87:24.121874 88:25.947806 89:19.230241 90:7.0108842 91:9.697479 92:13.111304 93:26.529536 94:14.789263 95:12.256435 96:24.933681 97:52.526655 98:10.839811 99:17.953028 100:20.871483 101:17.374399 102:20.512233 103:30.337421 104:20.966916 105:18.844156 106:16.576276 107:10.696942 108:22.12418 109:11.011302 110:37.133485 111:11.899286 112:7.5632826 113:19.578834 114:7.1500128 115:43.955328 116:5.9381979 117:40.987494 118:11.219847 119:22.563173 120:21.312458 121:7.4973896 122:40.369191 123:22.104921 124:60.58589 125:6.5905913 126:35.316944 127:9.2453448 128:26.42418 129:10.92281 130:20.781099 131:7.3774687 132:12.581902 133:28.075938 134:19.632493 135:18.814786 136:14.730579 137:25.307702 138:5.5116746 139:67.890586 140:3.5787568 141:46.336907 142:11.556932 143:2.4989755 144:24.212627 145:36.184802 146:27.399243 147:25.268561 148:18.836745 149:29.285717 150:42.66055 151:25.045774 152:13.395641 153:46.545912 154:12.479308 155:8.9275166 156:33.229612 157:24.36712 158:26.005066 159:20.983854 160:14.740478 161:12.097299 162:10.44233 163:27.581175 164:1.6563763 165:7.2926951 166:3.883368 167:18.971521 168:24.219219 169:44.874905 170:15.007217 171:22.99737 172:33.722632 173:8.901165 174:14.870031 175:32.884549 176:16.455941 177:18.341582 178:10.201978 179:8.1931611 180:11.20765 181:29.711359 182:19.890735 183:6.1433255 184:14.49932 185:26.309921 186:14.168193 187:16.450826 188:15.205589 189:8.6722943 190:20.699865 191:9.1152495 192:14.703028 193:16.226599 194:3.971268 195:23.74501 196:20.911634 197:13.832508 198:8.0547426 199:5.4597663 200:11.830638 201:6.9384607 202:23.677378 203:9.7220587 204:19.374185 205:24.469599 206:3.8399931 207:7.3552782 208:9.9529484 209:18.684088 210:13.324294 211:21.371915 212:8.0889128 213:17.116949 214:21.040936 215:20.035234 216:9.9755301 217:10.51347 218:19.335358 219:18.874902 220:11.420141 221:13.541522 222:18.566909 223:13.439839 224:27.832101 225:3.8187329 226:28.928394 227:38.846323 228:18.579921 229:17.32377 230:7.698651 231:27.195396 232:5.8695664 233:19.669516 234:21.736676 235:20.851524 236:22.900279 237:13.991538 238:16.6743 239:8.2407752 240:4.2506503 241:19.927073 242:12.035754 243:9.4424154 244:27.443923 245:39.378774 246:14.893431 247:19.509493 248:24.492268 249:26.355802 250:20.293344 251:13.585174 252:2.4859455 253:4.0704492 254:28.330169 255:3.7718727 256:6.3347228 257:5.7605374 258:27.281547 259:36.426581 260:27.693572 261:11.280038 262:26.940701 263:15.589244 264:19.19987 265:9.7213604 266:33.265433 267:21.568571 268:5.4264855 269:2.478989 270:18.146499 271:6.0840949 272:21.409293 273:7.9574374 274:14.69495 275:13.182877 276:28.775438 277:8.1147866 278:20.541131 279:34.830143 280:39.052787 281:24.903896 282:25.492671 283:29.561258 284:20.946046 285:58.687201 286:31.190187 287:23.188912 288:46.197221 289:60.862266 290:47.264729 291:26.39722 292:16.983301 293:14.298571 294:34.51216 295:19.235795 296:18.495927 297:38.118567 298:32.630409 299:4.4343737 300:16.901577 301:30.233166 302:22.437232 303:32.767439 304:24.993785 305:20.417046 306:26.943722 307:25.219311 308:22.498308 309:21.41983 310:5.2636606 311:12.776948 312:28.751371 313:21.109471 314:13.180803 315:17.005686 316:19.524875 317:21.973211 318:9.1074838 319:20.135132 320:9.9756569 321:11.433375 322:18.01643 323:9.0500701 324:10.376877 325:39.931374 326:20.09807 327:9.6640826 328:39.490158 329:15.760122 330:24.421667 331:16.328684 332:12.475478 333:28.438039 334:18.369489 335:15.016955 336:11.131446 337:31.973019 338:15.877312 339:36.211689 340:15.687382 341:13.26843 342:29.456348 343:18.520956 344:10.965703 345:4.3862888 346:4.8508214 347:8.0006521 348:8.0175458 349:7.8445581 350:6.2594525 351:7.2855687 352:7.0136508 353:6.9111549 354:3.5259488 355:12.776114 356:22.588406 357:11.331634 358:13.610849 359:15.699378 360:15.084238 361:10.825666 362:5.020663 363:2.9622458 364:8.7399291 365:3.3314563 366:10.785298 367:14.605548 368:4.6457541 369:20.492398 370:6.8048592 371:8.0391356 372:9.7689658 373:23.58801 374:10.085909 375:27.833838 376:20.560559 377:22.713809 378:8.0434603 379:29.101755 380:30.394346 381:6.0348912 382:25.20989 383:16.209007 384:20.246726 385:25.444546 386:27.276086 387:9.1164619 388:9.8777264 389:22.010866 390:10.997702 391:42.093307 392:16.147449 393:11.202757 394:22.262633 395:18.963759 396:20.813491 397:10.7239 398:8.6092639 399:0.75180204 400:5.3537344 401:7.294905 402:5.3940224 403:11.990956 404:10.728643 405:20.796072 406:19.189587 407:9.5086519 408:9.4476107 409:17.081607 410:9.6567148 411:23.509274 412:17.486624 413:6.8494974 414:20.953878 415:17.31159 416:15.279982 417:13.933423 418:7.108053 419:6.735396 420:3.4484038 421:2.4341056 422:19.81775 423:4.297053 424:13.458252 425:13.028689 426:10.476324 427:24.189156 428:10.277611 429:12.064751 430:16.857363 431:13.941676 432:25.282603 433:9.9180593 434:9.0078509 435:3.0972941 436:3.8021054 437:11.029244 438:19.477676 439:14.341703 440:8.9743693 441:17.716158 442:9.3261877 443:9.6680282 444:13.842764 445:12.106966 446:8.2667047 447:26.497589 448:2.2609977 449:10.422337 450:2.9757768 451:27.235582 452:15.518949 453:1.7409665 454:14.938376 455:21.278222 456:24.570056 457:11.033598 458:10.695521 459:7.422318 460:7.0933484 461:9.0393456 462:14.58505 463:40.096614 464:12.935766 465:21.993186 466:19.032182 467:6.374091 468:19.018361 469:30.724099 470:23.221954 471:7.6397013 472:11.916743 473:10.341931 474:10.239709 475:12.165218 476:45.263147 477:18.446972 478:16.788946 479:22.655477 480:15.306459 481:1.2995874 482:17.96042 483:24.775796 484:25.464198 485:31.920479 486:26.299562 487:28.585355 488:24.453026 489:18.18665 490:8.0813001 491:17.3817 492:2.81499 493:18.033115 494:19.211835 495:1.8953393 496:8.8968884 497:17.783457 498:4.9354539 499:12.601041 500:37.466977 501:19.851354 502:23.867056 503:8.8241014 504:15.622426 505:19.776679 506:23.822618 507:22.912835 508:23.145749 509:12.92229 510:17.583174 511:5.3931366 512:13.714908 513:12.697374 514:19.611027 515:11.420707 516:13.325656 517:21.504225 518:48.659714 519:4.8521856 520:21.645533 521:16.105419 522:9.5526675 523:24.381933 524:7.5257901 525:8.976995 526:6.4994368 527:3.7809243 528:13.802561 529:12.335345 530:19.77425 531:12.286542 532:12.048426 533:11.596616 534:14.25444 535:9.6680811 536:21.999233 537:23.57161 538:24.201831 539:14.882877 540:21.904621 541:23.812373 542:32.288688 543:10.272989 544:20.109779 545:20.562106 546:16.557657 547:44.670513 548:21.691464 549:13.16831 550:7.6550588 551:29.862508 552:20.790863 553:35.620964 554:24.331404 555:35.764467 556:15.26949 557:8.8494192 558:27.727591 559:5.5518661 560:17.478877 561:9.5658608 562:7.0726739 563:6.0447357 564:9.9081613 565:24.003698 566:39.733907 567:5.5140484 568:15.454275 569:34.264703 570:14.335418 571:14.107015 572:27.327995 573:33.943431 574:13.329794 575:14.228372 576:5.5575443 577:19.651105 578:15.348119 579:22.744507 580:4.3638007 581:19.380343 582:28.934217 583:29.680779 584:33.943655 585:15.610023 586:20.773064 587:17.532301 588:31.659206 589:14.407718 590:9.1380534 591:22.535932 592:51.867983 593:28.958746 594:24.927402 595:22.058621 596:14.353541 597:13.748685 598:11.821469 599:11.580277 600:13.292958 601:58.19746 602:26.991347 603:28.709748 604:19.634197 605:22.118888 606:20.48534 607:39.275288 608:39.382525 609:5.4457691 610:20.955679 611:24.325305 612:15.64784 613:6.7905653 614:18.320436 615:17.313642 616:26.887798 617:19.898086 618:8.4406164 619:12.121549 620:46.676851 621:22.832195 622:20.808599 623:11.492985 624:22.542129 625:27.859076 626:6.4753656 627:12.55761 628:15.126975 629:4.6541922 630:13.579976 631:12.036078 632:24.634845 633:11.756949 634:13.341274 635:13.398613 636:18.219236 637:13.69854 638:14.068079 639:17.260225 640:12.130111 641:30.226243 642:6.3016243 643:26.789388 644:12.136067 645:4.4889372 646:17.87554 647:20.376076 648:31.484255 649:36.392705 650:23.15547 651:53.37872 652:29.447362 653:21.685435 654:17.448823 655:17.135577 656:28.35543 657:21.622336 658:21.89573 659:30.124519 660:14.278025 661:23.86083 662:38.443727 663:18.874159 664:5.3110237 665:8.4010499 666:20.922997 667:37.837434 668:35.434247 669:32.684905 670:14.178564 671:14.623766 672:23.635417 673:26.539707 674:22.056787 675:19.752311 676:12.448512 677:11.001443 678:10.569438 679:16.184328 680:10.182588 681:9.6891032 682:19.260353 683:11.676161 684:9.9619213 685:15.859524 686:27.38708 687:21.538691 688:13.619914 689:18.979786 690:2.6102929 691:36.437511 692:19.402461 693:13.490261 694:16.255614 695:11.122158 696:17.23879 697:23.284858 698:17.149543 699:21.491694 700:23.044236 701:16.661715 702:10.703804 703:9.7259144 704:7.2188651 705:2.0115255 706:9.2268798 707:10.952356 708:5.0198222 709:14.126975 710:13.346761 711:16.237048 712:11.437439 713:10.796072 714:15.021413 715:39.398483 716:45.719332 717:28.470442 718:22.44683 719:22.559972 720:24.361967 
1 0.7568359375 0.6386819910190619 1:547.52403 2:324.54395 3:162.094 4:248.03108 5:659.20529 6:52.033317 7:546.58397 8:381.30569 9:321.30329 10:339.94603 11:386.09891 12:223.90387 13:280.62215 14:465.12933 15:790.07471 16:217.53073 17:92.887338 18:558.58914 19:262.34117 20:403.66657 21:47.558108 22:186.2713 23:254.02022 24:346.17678 25:453.002 26:433.89124 27:232.18273 28:281.68264 29:192.77347 30:292.02561 31:142.93893 32:107.48903 33:89.406179 34:33.839524 35:27.944559 36:107.92791 37:40.831605 38:375.81542 39:194.24027 40:402.78915 41:517.15466 42:98.465319 43:405.78241 44:119.93213 45:488.71702 46:213.8173 47:433.09934 48:370.26138 49:623.1022 50:434.84085 51:146.16031 52:307.17969 53:207.74004 54:627.34334 55:347.65597 56:269.5587 57:593.74705 58:206.83577 59:209.12924 60:233.41473 61:727.4036 62:308.21523 63:253.63539 64:270.55909 65:158.69141 66:363.82191 67:649.85685 68:396.79472 69:265.21446 70:53.775147 71:272.57289 72:153.92024 73:833.7452 74:120.9037 75:253.79776 76:433.67379 77:556.06091 78:229.90484 79:280.10506 80:434.951 81:668.56972 82:257.25944 83:352.20259 84:452.84704 85:525.58896 86:120.41107 87:132.60729 88:259.17468 89:531.29947 90:165.94084 91:342.07437 92:378.00151 93:159.9916 94:496.29667 95:567.6883 96:118.56457 97:349.97942 98:596.60954 99:104.58922 100:816.3577 101:514.41201 102:263.28968 103:197.81185 104:285.99888 105:427.05601 106:320.92614 107:164.41125 108:72.539064 109:917.1991 110:291.98955 111:287.4469 112:298.37149 113:573.08799 114:127.3039 115:248.96287 116:410.94182 117:405.2577 118:361.30329 119:350.18016 120:107.94686 121:516.16113 122:234.56859 123:49.694906 124:224.48463 125:536.99367 126:355.64585 127:395.95216 128:266.68292 129:168.70476 130:301.35697 131:400.39772 132:183.20542 133:222.20731 134:77.448167 135:271.82801 136:332.29459 137:44.208137 138:333.33836 139:323.92224 140:500.43257 141:679.4527 142:380.69261 143:554.63124 144:158.47887 145:416.323 146:530.53794 147:310.33269 148:130.42887 149:471.58721 150:220.19837 151:241.8889 152:423.55197 153:95.477903 154:268.6966 155:298.60991 156:130.26722 157:201.98952 158:200.83916 159:315.83072 160:126.68263 161:369.73602 162:234.66639 163:556.94742 164:650.13818 165:697.73247 166:207.71485 167:317.38967 168:226.29811 169:473.09275 170:113.4119 171:374.19576 172:384.49735 173:306.88325 174:444.612 175:152.9728 176:268.63481 177:290.2468 178:262.08798 179:353.63834 180:208.82476 181:511.83761 182:173.05099 183:76.359652 184:341.29124 185:313.74533 186:172.58095 187:643.38425 188:360.32016 189:493.48343 190:392.2691 191:264.46525 192:350.87777 193:386.05611 194:391.99174 195:199.45484 196:666.3709 197:218.63524 198:85.892602 199:604.8514 200:131.24656 201:512.52462 202:174.43833 203:286.60543 204:170.88252 205:391.64744 206:464.76419 207:465.68876 208:7.4627505 209:110.67013 210:174.94662 211:78.045709 212:490.92123 213:464.59844 214:22.021212 215:238.47995 216:300.61272 217:558.63239 218:383.68829 219:159.82692 220:80.050853 221:235.22226 222:253.75501 223:456.97462 224:237.51488 225:259.72393 226:217.69653 227:98.404445 228:42.171392 229:185.89285 230:284.73026 231:1014.5684 232:505.74812 233:467.70448 234:993.69803 235:452.1478 236:322.38026 237:329.08932 238:221.17451 239:28.02668 240:189.07572 241:49.234848 242:367.62133 243:299.49049 244:109.27599 245:231.15561 246:92.865316 247:304.40779 248:748.49482 249:571.06254 250:178.71226 251:279.7324 252:158.4632 253:429.97436 254:483.08498 255:242.72981 256:210.36832 257:619.11579 258:155.05232 259:439.66997 260:138.47255 261:221.10079 262:305.43498 263:384.91302 264:247.90881 265:458.27671 266:161.10752 267:396.57831 268:104.48235 269:359.78722 270:160.58733 271:117.5041 272:270.96863 273:236.30163 274:301.3866 275:285.91852 276:573.29203 277:384.84929 278:280.55856 279:483.5571 280:247.87316 281:466.67771 282:270.24881 283:152.47526 284:240.05846 285:413.24849 286:270.07978 287:244.46297 288:191.78282 289:344.6478 290:537.95054 291:234.97728 292:264.22542 293:216.76337 294:167.88392 295:253.25391 296:226.57947 297:287.67279 298:134.218 299:235.68366 300:61.383813 301:429.28699 302:204.3089 303:487.839 304:119.9622 305:131.18723 306:254.12748 307:200.54139 308:64.069684 309:255.40198 310:313.84277 311:213.04885 312:412.86577 313:272.40386 314:278.8755 315:531.74578 316:217.40304 317:424.09703 318:262.80681 319:525.57001 320:536.20328 321:130.14319 322:248.37431 323:47.183364 324:369.13228 325:398.90443 326:465.93351 327:104.06209 328:354.91853 329:267.4905 330:215.48704 331:202.60073 332:438.57666 333:351.60826 334:362.37995 335:188.34545 336:271.4464 337:372.82383 338:339.54714 339:467.43729 340:79.286077 341:158.45777 342:111.63062 343:145.94831 344:180.00401 345:312.98624 346:146.29617 347:408.03205 348:306.083 349:291.48138 350:176.03372 351:579.30682 352:137.07671 353:78.605406 354:293.68298 355:175.56606 356:72.28637 357:235.29397 358:152.73262 359:251.17227 360:320.94354 361:101.27195 362:219.45143 363:238.36544 364:213.47811 365:537.84526 366:574.99484 367:232.3257 368:428.16238 369:96.628027 370:357.3942 371:157.29853 372:237.14937 373:543.00119 374:303.65466 375:273.74759 376:396.47876 377:156.58205 378:455.31772 379:319.49569 380:360.31562 381:56.163213 382:115.21392 383:289.14232 384:150.78796 385:98.321608 386:31.662311 387:308.00087 388:454.55457 389:285.26326 390:423.98959 391:55.886663 392:259.59374 393:296.55212 394:224.25528 395:187.72805 396:172.83115 397:593.5468 398:278.20861 399:211.55858 400:169.57267 401:355.1187 402:115.75289 403:120.87806 404:252.94148 405:80.671974 406:588.0712 407:195.91959 408:380.42856 409:210.14842 410:215.65147 411:223.88303 412:644.71334 413:258.20276 414:493.27584 415:506.68156 416:147.28863 417:259.57229 418:334.77048 419:91.239346 420:346.79805 421:699.87053 422:308.15953 423:330.08203 424:590.70026 425:367.6075 426:168.98431 427:316.4896 428:404.58369 429:84.356334 430:213.58072 431:457.62086 432:291.86534 433:280.41796 434:452.42974 435:440.5355 436:279.90089 437:504.17419 438:176.48723 439:154.92329 440:210.8253 441:352.91368 442:25.2515 443:94.941819 444:564.95045 445:158.59384 446:267.75595 447:467.39506 448:284.22926 449:597.73214 450:179.48197 451:116.36741 452:198.00499 453:383.84642 454:302.09581 455:192.55987 456:497.09352 457:576.77307 458:442.46866 459:307.26269 460:215.07202 461:212.79804 462:345.58486 463:348.85468 464:140.31686 465:181.94014 466:226.50463 467:70.526236 468:165.3715 469:83.333451 470:354.02973 471:258.92131 472:84.437687 473:59.934252 474:118.78927 475:292.75513 476:509.0382 477:189.18412 478:197.23639 479:302.47036 480:230.5371 481:343.41224 482:210.55165 483:106.05471 484:121.30038 485:55.437626 486:214.67876 487:262.80362 488:591.56061 489:630.95524 490:123.56737 491:341.21014 492:442.58604 493:158.99849 494:405.32263 495:510.59006 496:177.95634 497:226.49748 498:201.7033 499:208.99306 500:407.77298 501:155.64132 502:110.88453 503:199.53207 504:154.62513 505:398.14163 506:349.48332 507:466.36398 508:63.197919 509:20.455768 510:367.21548 511:500.96258 512:652.74211 513:235.85385 514:198.78788 515:356.98814 516:362.44422 517:418.90268 518:364.73587 519:435.19633 520:139.50245 521:161.83732 522:167.60396 523:656.36429 524:326.60591 525:253.67116 526:109.65273 527:417.41135 528:244.96027 529:373.71372 530:241.22004 531:446.21525 532:246.42781 533:508.75392 534:354.60929 535:234.81799 536:284.65408 537:180.3793 538:59.735401 539:290.90346 540:477.34981 541:445.66238 542:278.00995 543:363.30581 544:371.48018 545:120.43352 546:317.47555 547:697.00982 548:209.73894 549:228.47423 550:34.300687 551:254.34026 552:194.18719 553:118.13119 554:636.32217 555:374.25847 556:638.05447 557:109.42501 558:366.94902 559:307.98377 560:422.07252 561:415.24917 562:166.49031 563:349.36663 564:230.96521 565:358.15507 566:225.79766 567:206.98104 568:269.24252 569:233.84799 570:480.69719 571:402.78227 572:231.11492 573:445.56519 574:322.38845 575:99.312489 576:175.00515 577:218.21429 578:497.30925 579:202.91199 580:359.00772 581:142.55996 582:147.37611 583:315.04694 584:199.8778 585:251.29778 586:398.09924 587:259.83028 588:254.65065 589:54.929075 590:176.24439 591:357.46156 592:407.67256 593:120.81446 594:496.39053 595:422.16768 596:521.73586 597:279.63496 598:531.02651 599:139.84038 600:316.10446 601:254.3252 602:275.8792 603:656.1944 604:413.69961 605:208.40323 606:527.76831 607:345.66018 608:846.60488 609:222.84641 610:176.22943 611:297.07975 612:106.52834 613:290.01745 614:111.75422 615:182.38561 616:278.78356 617:113.27046 618:118.49274 619:425.35142 620:24.962005 621:279.19933 622:84.358703 623:221.82144 624:597.54411 625:560.67024 626:277.95702 627:395.28517 628:97.947727 629:286.69274 630:447.98498 631:883.93497 632:353.65294 633:459.71688 634:314.82255 635:69.574628 636:150.28107 637:91.362983 638:435.76265 639:257.24052 640:140.2768 641:389.64837 642:540.7077 643:568.39179 644:368.45836 645:653.97125 646:270.13182 647:183.36764 648:396.07103 649:219.6507 650:126.29825 651:529.70634 652:547.90115 653:303.22158 654:309.52335 655:369.3331 656:368.55684 657:81.148318 658:313.13136 659:107.9989 660:186.61766 661:984.1424 662:528.01716 663:195.70751 664:226.49924 665:308.73202 666:464.33599 667:617.72068 668:91.644536 669:658.39649 670:416.81942 671:267.31311 672:248.94585 673:219.24814 674:524.61725 675:214.33971 676:385.76885 677:100.78256 678:507.87768 679:358.21245 680:481.28303 681:369.13826 682:231.74175 683:121.44674 684:184.95469 685:478.55921 686:305.67709 687:648.98633 688:309.21981 689:646.96996 690:189.29622 691:276.85088 692:312.18905 693:515.98781 694:139.57056 695:140.67599 696:319.8001 697:426.03906 698:291.53795 699:154.6619 700:136.56721 701:135.35735 702:229.33579 703:220.25132 704:98.938651 705:109.37294 706:446.8587 707:600.50557 708:691.44352 709:429.75072 710:436.03022 711:268.96447 712:264.33526 713:206.12709 714:135.43327 715:362.26086 716:143.37582 717:316.9078 718:205.53534 719:247.30586 720:221.26801 
1 0.7568359375 0.6386819907999011 1:25.556853 2:3.222714 3:28.823931 4:20.672562 5:15.657171 6:30.705794 7:32.697293 8:19.401972 9:24.532391 10:12.571672 11:10.174022 12:12.535671 13:24.17594 14:11.157689 15:20.096656 16:13.437514 17:15.269431 18:8.7274799 19:41.744069 20:1.4494392 21:18.286373 22:13.278071 23:13.956152 24:6.6618008 25:11.884346 26:7.0726323 27:9.9127118 28:11.457886 29:14.764357 30:11.370629 31:14.486501 32:8.3925931 33:11.753951 34:12.31927 35:14.456466 36:23.460357 37:34.03756 38:27.952621 39:15.51222 40:20.477289 41:13.808154 42:15.132944 43:27.430246 44:12.172159 45:13.451246 46:26.837586 47:20.808484 48:10.178266 49:12.60361 50:3.5017685 51:7.8254138 52:9.5943711 53:14.326535 54:19.866378 55:18.167344 56:29.481301 57:20.975732 58:16.475787 59:26.259307 60:10.130316 61:20.604732 62:21.067071 63:22.958557 64:21.462008 65:15.996768 66:9.0376913 67:3.9526146 68:11.529744 69:4.6840592 70:3.4892583 71:22.737976 72:8.8588474 73:42.289108 74:8.8068344 75:16.068914 76:24.505726 77:17.835675 78:28.527935 79:55.231184 80:22.708637 81:29.419659 82:14.364039 83:31.457724 84:10.789513 85:12.741101 86:42.213699 87:44.60904 88:8.5026922 89:16.270038 90:19.142956 91:45.311989 92:48.923655 93:30.475913 94:18.451919 95:8.3389338 96:13.766507 97:8.7149874 98:12.864276 99:12.430188 100:13.130522 101:7.3037088 102:3.2205523 103:3.2190912 104:21.464699 105:20.791016 106:8.5611263 107:11.308724 108:5.845479 109:63.406444 110:13.904376 111:14.226108 112:17.334658 113:38.679958 114:29.43465 115:27.605276 116:2.8611737 117:4.1085077 118:22.892084 119:23.679697 120:10.085903 121:18.040478 122:32.279796 123:18.260944 124:9.0477614 125:15.073182 126:22.484311 127:12.150366 128:10.460873 129:3.5819568 130:16.499936 131:5.5861139 132:21.489475 133:26.226144 134:16.75682 135:8.2068504 136:13.204101 137:14.348526 138:20.029326 139:19.86853 140:6.4955495 141:20.50344 142:3.9877167 143:8.2833332 144:8.1250385 145:30.818879 146:40.431012 147:29.933867 148:15.368365 149:24.194491 150:5.9518993 151:24.73405 152:37.004028 153:47.583005 154:40.518631 155:20.454999 156:11.532262 157:28.469798 158:24.255263 159:31.317758 160:8.4768535 161:61.528304 162:49.856667 163:29.276143 164:22.899575 165:14.743605 166:8.0931146 167:16.69601 168:13.866292 169:36.550783 170:13.231365 171:33.064871 172:4.5742667 173:10.722938 174:2.0631441 175:15.364683 176:24.829462 177:10.339674 178:19.039216 179:7.1967354 180:18.74571 181:33.225932 182:17.759229 183:16.862497 184:22.917474 185:13.909284 186:14.869483 187:13.218374 188:21.278869 189:17.046128 190:13.168632 191:18.966526 192:3.1307879 193:7.2705507 194:46.717951 195:30.820357 196:24.481265 197:8.7305577 198:17.504478 199:16.598686 200:33.071742 201:31.462523 202:11.856202 203:22.510406 204:12.873467 205:13.672354 206:11.348586 207:17.180984 208:19.694986 209:16.917387 210:35.094362 211:15.288541 212:19.765567 213:32.013304 214:14.25084 215:10.767776 216:10.586394 217:18.742323 218:11.186405 219:17.799056 220:8.1609345 221:10.618488 222:12.790214 223:28.829126 224:33.41046 225:14.966767 226:26.569514 227:14.171543 228:23.387172 229:6.5484053 230:3.8006704 231:8.7556508 232:4.3591659 233:4.5333221 234:8.0344959 235:16.669115 236:7.1146092 237:13.98626 238:8.9523416 239:1.6759132 240:3.7154007 241:64.015121 242:25.167196 243:24.762859 244:5.8776889 245:15.784495 246:19.857517 247:26.095169 248:24.450186 249:11.842052 250:12.067172 251:25.365749 252:21.149654 253:55.022867 254:47.460108 255:15.691667 256:15.448831 257:18.544432 258:34.991073 259:16.561669 260:14.777678 261:7.7048068 262:14.780538 263:6.5894309 264:12.385409 265:12.478176 266:20.919802 267:14.993864 268:6.8193971 269:5.8561827 270:11.198954 271:18.264846 272:17.275391 273:4.3228912 274:15.091858 275:15.860631 276:8.0227137 277:29.093037 278:3.5347481 279:42.104196 280:16.118766 281:9.6842057 282:6.1403414 283:36.913455 284:37.432922 285:12.498033 286:16.770266 287:23.135072 288:15.279369 289:6.9300058 290:14.51814 291:2.7070582 292:13.30678 293:22.430532 294:10.9564 295:39.167799 296:60.293464 297:31.616036 298:11.670637 299:56.475556 300:55.521104 301:29.986285 302:36.85258 303:24.054198 304:36.636242 305:25.880657 306:21.2031 307:11.891918 308:17.590104 309:23.3324 310:23.966878 311:27.491925 312:17.971294 313:18.437507 314:50.889902 315:22.587183 316:54.443485 317:34.211087 318:49.089719 319:8.5679637 320:18.445318 321:43.268169 322:29.873313 323:29.476158 324:28.998033 325:14.225633 326:17.828367 327:5.5165964 328:22.202484 329:31.189436 330:22.705726 331:21.898362 332:45.544137 333:3.4056885 334:33.147268 335:9.9558601 336:49.95786 337:17.491654 338:18.936773 339:33.241575 340:8.0600616 341:16.608837 342:10.185988 343:17.295908 344:18.510599 345:4.1813022 346:2.4560065 347:9.9047451 348:10.78971 349:48.87928 350:35.230461 351:3.8114097 352:18.880964 353:11.128163 354:0.67527316 355:18.955575 356:9.1359486 357:15.974423 358:12.310124 359:7.4137497 360:12.97328 361:12.783348 362:17.981491 363:21.798853 364:6.1491051 365:9.7477657 366:6.6682988 367:17.300331 368:22.051942 369:34.330474 370:15.621898 371:19.254131 372:32.877389 373:17.719788 374:13.520252 375:19.608882 376:4.0654123 377:17.629862 378:2.1914183 379:13.644863 380:2.5790114 381:2.9975994 382:0.38090445 383:1.3763019 384:0.3652789 385:8.4244259 386:11.659598 387:18.464317 388:11.010782 389:4.3806765 390:10.190624 391:14.426684 392:18.413567 393:9.4849754 394:8.0289596 395:8.6374721 396:11.757108 397:24.875591 398:4.4649046 399:14.108455 400:16.083143 401:22.741963 402:23.845813 403:20.633687 404:4.5100995 405:22.623986 406:11.519422 407:14.620216 408:9.7501684 409:37.141654 410:27.598618 411:41.423387 412:25.980911 413:14.75988 414:14.175465 415:27.65203 416:38.286298 417:23.239303 418:15.967653 419:21.196764 420:3.2346715 421:18.797784 422:11.581684 423:10.134211 424:6.1350229 425:2.9891152 426:7.2170712 427:10.874326 428:10.017361 429:7.9803186 430:10.767334 431:6.8229291 432:9.8113955 433:4.7543741 434:9.2972157 435:10.461496 436:6.7076759 437:15.042916 438:6.3867114 439:63.933013 440:29.537271 441:46.183241 442:14.960108 443:24.302957 444:12.077003 445:24.923079 446:8.8358322 447:0.2190067 448:23.909425 449:18.709323 450:19.758846 451:32.060475 452:33.011396 453:20.898971 454:20.804705 455:20.52813 456:17.179411 457:23.891642 458:55.263085 459:23.469262 460:19.132313 461:21.832315 462:1.4650963 463:23.870322 464:25.888142 465:13.69818 466:19.415225 467:38.825589 468:32.677604 469:34.230565 470:2.6510829 471:27.129201 472:3.5823798 473:17.678576 474:1.1023906 475:7.4736588 476:11.461442 477:10.774542 478:8.9410776 479:5.4188741 480:9.930999 481:22.814997 482:11.440434 483:14.088744 484:11.192372 485:9.890997 486:8.9724362 487:19.446501 488:15.194977 489:15.119773 490:10.172273 491:9.7862418 492:10.008789 493:10.92256 494:8.6566798 495:17.373006 496:31.153171 497:17.090875 498:5.5279438 499:57.030888 500:52.705625 501:9.2234738 502:48.014465 503:13.064296 504:51.569785 505:21.993432 506:30.531903 507:36.639548 508:18.53619 509:56.165889 510:29.150432 511:46.734888 512:40.868228 513:51.012869 514:60.601084 515:27.747265 516:30.978578 517:64.124625 518:21.433769 519:6.5192352 520:15.973292 521:31.776469 522:29.644226 523:12.344702 524:26.528424 525:15.127345 526:29.186965 527:19.065131 528:14.154085 529:21.084478 530:32.704589 531:35.00514 532:22.437247 533:9.490865 534:15.073952 535:20.160458 536:34.203023 537:6.2134497 538:20.231421 539:22.28286 540:20.330425 541:41.755514 542:34.005256 543:28.377975 544:16.710566 545:11.677771 546:25.996745 547:19.543173 548:26.764748 549:35.955132 550:10.719994 551:34.560665 552:18.265955 553:15.542026 554:30.707231 555:33.529683 556:35.27372 557:31.631508 558:51.071251 559:18.15315 560:12.376169 561:17.049222 562:7.6125318 563:9.5931172 564:20.809771 565:5.2274054 566:18.106381 567:26.156841 568:4.9091147 569:14.203433 570:8.5358561 571:16.866899 572:11.799862 573:21.34005 574:8.8985505 575:9.3851013 576:14.018176 577:11.380755 578:10.303697 579:7.420205 580:18.97584 581:6.1602465 582:12.524771 583:12.300168 584:2.4646095 585:10.27167 586:8.8627812 587:3.7626025 588:4.6245709 589:4.8608805 590:7.5794014 591:19.195608 592:25.133962 593:21.690683 594:17.427241 595:44.820312 596:28.170423 597:26.849862 598:28.437963 599:11.861602 600:30.534938 601:7.1546987 602:11.727479 603:39.85647 604:15.892737 605:20.28637 606:37.891383 607:23.41239 608:19.251547 609:14.167769 610:17.014154 611:5.8008943 612:30.322734 613:23.879693 614:8.3363271 615:6.368839 616:9.1869132 617:10.060492 618:17.651196 619:26.207403 620:6.4003471 621:7.2557585 622:21.397762 623:5.9419288 624:13.399275 625:4.5811131 626:34.135605 627:16.403965 628:6.7958093 629:10.040327 630:17.459835 631:7.8039735 632:3.9276033 633:6.7946344 634:7.0979685 635:7.751765 636:7.4689663 637:13.932937 638:9.238106 639:12.536371 640:9.1224305 641:12.240124 642:3.1001465 643:18.3314 644:11.891188 645:9.4486726 646:5.9709201 647:13.87791 648:10.534116 649:11.521149 650:9.0613382 651:19.710965 652:8.1053709 653:2.905031 654:12.01138 655:3.1435162 656:13.929273 657:24.6662 658:22.106407 659:7.5100383 660:6.7686998 661:35.116731 662:7.9159259 663:11.100669 664:25.261067 665:16.488805 666:9.0671281 667:29.176944 668:4.1619563 669:11.136163 670:13.530503 671:15.376192 672:6.2282911 673:29.839034 674:19.220299 675:3.0369654 676:15.050447 677:6.3715325 678:9.2435307 679:9.4530994 680:16.125931 681:13.255058 682:9.5236112 683:10.581517 684:5.1087689 685:13.147353 686:7.7239269 687:11.40564 688:17.308239 689:13.348795 690:9.4116855 691:45.148624 692:24.163182 693:9.6698677 694:15.845666 695:22.241287 696:6.8409594 697:33.865458 698:19.888842 699:21.909391 700:17.629888 701:16.559846 702:15.381768 703:23.051642 704:5.6318862 705:17.326991 706:9.2061548 707:0.84047033 708:8.1737285 709:28.007345 710:9.6589978 711:11.167505 712:7.6301119 713:3.2027761 714:16.532025 715:12.481127 716:30.626644 717:16.059408 718:40.749543 719:24.787092 720:17.752619 
